svm_type c_svc
kernel_type rbf
gamma 0.02777777798473835
nr_class 2
total_sv 18
rho -0.3451830867313631
label 0 1
probA -2.955536358918707
probB -0.21314356463303935
nr_sv 9 9
SV
1.110305615476764 1:6.108110537752509E-4 2:0.0 3:0.0 4:0.0 5:0.0023759575560688972 6:8.063929853960872E-4 7:0.0011030978057533503 8:2.3689132649451494E-4 9:6.108110537752509E-4 10:0.007098391652107239 11:4.8754323506727815E-4 12:0.0 13:0.01241142489016056 14:0.024300195276737213 15:2.687976520974189E-4 16:0.0022580099757760763 17:7.106740376912057E-4 18:1.43700439366512E-4 19:0.002372945658862591 20:0.011134411208331585 21:0.013942079618573189 22:0.04570711776614189 23:0.06367842853069305 24:0.0 25:0.0 26:9.94543544948101E-4 27:0.00218529487028718 28:1.6414569108746946E-4 29:0.007641597185283899 30:0.03829837590456009 31:0.0077645136043429375 32:0.054882194846868515 33:0.0 34:0.0 35:0.002983630634844303 36:0.0065558841452002525 37:0.003992145881056786 38:0.0 39:0.0 40:0.004223858937621117 41:0.0038058224599808455 42:0.0024191788397729397 43:0.010731600224971771 44:0.005585790146142244 45:0.003992145881056786 46:0.02091197296977043 47:0.02020285651087761 48:0.010166240856051445 49:0.0636550784111023 50:0.04427888244390488 51:8.063929853960872E-4 52:0.009248131886124611 53:0.003757060971111059 54:4.790014281752519E-5 55:0.007118836976587772 56:0.010391585528850555 57:0.012736336328089237 58:0.22209610044956207 59:0.21203993260860443 60:0.01827886328101158 61:0.0 62:3.315145440865308E-4 63:0.006006335839629173 64:4.924370441585779E-4 65:0.06323511153459549 66:0.21645037829875946 67:0.13035911321640015 68:0.2505216896533966 69:0.0060929544270038605 70:0.0 71:9.94543544948101E-4 72:0.01801900751888752 73:0.008194846101105213 74:0.0019474263535812497 75:0.0 76:0.0072190347127616405 77:0.007696571759879589 78:0.0 79:0.009017333388328552 80:0.01019756868481636 81:0.0055267950519919395 82:0.13193708658218384 83:0.15805169939994812 84:0.053947702050209045 85:0.06849054247140884 86:0.03488152474164963 87:0.0 88:0.003005777718499303 89:0.003399189794436097 90:7.812365656718612E-4 91:0.0838828757405281 92:0.2768454849720001 93:0.05145885795354843 94:0.2539825439453125 95:0.15926282107830048 96:0.0060929544270038605 97:0.0 98:0.024108393117785454 99:0.029894668608903885 100:0.0 101:0.06453564018011093 102:0.06347433477640152 103:0.2768454849720001 104:0.2768454849720001 105:0.002030984964221716 106:0.0 107:0.008036130107939243 108:0.009964889846742153 109:0.003356098895892501 110:0.0031853560358285904 111:5.725017981603742E-4 112:0.017433244735002518 113:0.024129698053002357 114:0.0 115:0.0 116:0.0 117:0.002466748468577862 118:0.06825007498264313 119:0.16114862263202667 120:0.14288896322250366 121:0.11745138466358185 122:0.07238909602165222 123:0.0 124:0.0 125:0.0 126:2.604121982585639E-4 127:0.15524522960186005 128:0.2768454849720001 129:0.11045893281698227 130:0.057869769632816315 131:0.014292825944721699 132:0.0 133:0.0 134:0.07232517004013062 135:0.14445772767066956 136:0.05315486714243889 137:0.0977732315659523 138:0.051669780164957047 139:0.23000586032867432 140:0.2768454849720001 141:0.0 142:0.0 143:0.024108393117785454 144:0.04815257713198662 145:0.003644690616056323 146:0.010012409649789333 147:0.011855260469019413 148:0.0037637315690517426 149:0.004159211181104183 150:0.0 151:0.0 152:0.003444319823756814 153:0.0033032901119440794 154:0.007280074991285801 155:0.005904728546738625 156:0.016692612320184708 157:0.0170583575963974 158:0.009004708379507065 159:8.342198561877012E-4 160:0.011593752540647984 161:0.0023990157060325146 162:0.01513242069631815 163:0.0 164:0.0 165:0.0017172381049022079 166:0.05346131697297096 167:0.14142954349517822 168:2.780732756946236E-4 169:0.0038645844906568527 170:0.004420805722475052 171:0.00579447764903307 172:0.0 173:0.0 174:0.00702617596834898 175:0.06032763421535492 176:0.1340387612581253 177:0.0 178:0.0 179:0.0 180:0.0 181:0.0440140962600708 182:0.03837020695209503 183:0.009331507608294487 184:0.0012545771896839142 185:0.0 186:0.0 187:0.007197604048997164 188:0.032243989408016205 189:0.028660938143730164 190:0.039031270891427994 191:0.03928709775209427 192:0.021703466773033142 193:0.005686118733137846 194:0.0 195:0.012287366203963757 196:0.07877042889595032 197:0.1071418821811676 198:0.04469951242208481 199:0.0 200:0.0 201:5.724127404391766E-4 202:0.1260933130979538 203:0.2869129776954651 204:0.03650111332535744 205:0.09855762124061584 206:0.04601095989346504 207:0.009296455420553684 208:0.0 209:0.0 210:0.002342058578506112 211:0.18889160454273224 212:0.2869129776954651 213:0.04148506000638008 214:0.0 215:0.0 216:0.0 217:0.0459088496863842 218:0.00494378013536334 219:0.0017932511400431395 220:0.0 221:0.0 222:0.05442436411976814 223:0.06900452077388763 224:0.08703461289405823 225:0.09412547200918198 226:0.11037689447402954 227:0.007913012057542801 228:0.005379753652960062 229:0.0 230:0.0 231:0.11520975828170776 232:0.19541192054748535 233:0.14533373713493347 234:0.14948557317256927 235:0.0 236:0.0 237:0.01915128156542778 238:0.15626639127731323 239:0.2869129776954651 240:0.2869129776954651 241:0.14421309530735016 242:0.05106021836400032 243:0.015341848134994507 244:0.0 245:0.004689821973443031 246:0.021973999217152596 247:0.09843897819519043 248:0.2869129776954651 249:0.11731108278036118 250:0.0 251:0.0 252:0.0 253:0.00957260001450777 254:0.0 255:0.0 256:0.0 257:0.0 258:0.12979641556739807 259:0.10337698459625244 260:0.09178487956523895 261:0.015613622963428497 262:0.028717800974845886 263:0.0 264:0.0 265:0.0 266:0.0 267:0.06991812586784363 268:0.22104348242282867 269:0.15191563963890076 270:0.020480649545788765 271:0.0 272:0.0 273:0.09024252742528915 274:0.11720778048038483 275:0.034322671592235565 276:0.08204562962055206 277:0.23082920908927917 278:0.058481696993112564 279:0.0 280:0.0 281:0.014069467782974243 282:0.06071693077683449 283:0.16852323710918427 284:0.07149961590766907 285:0.005560594145208597 286:0.0 287:0.0 288:0.0 289:0.005166135262697935 290:0.014680327847599983 291:0.014232293702661991 292:0.011586697772145271 293:0.0013131230371072888 294:0.0 295:0.0 296:0.0 297:0.003746336791664362 298:0.0042593954131007195 299:0.11232702434062958 300:0.1992977410554886 301:0.004511103965342045 302:4.377076693344861E-4 303:0.0 304:0.0 305:0.0 306:0.0 307:0.0 308:0.08010930567979813 309:0.30367976427078247 310:0.019308751448988914 311:0.0 312:0.0 313:0.0 314:0.0 315:0.0 316:0.00118977518286556 317:0.032786134630441666 318:0.09471147507429123 319:0.034855592995882034 320:0.0019470195984467864 321:0.0 322:0.0 323:0.0 324:0.0 325:0.01364687830209732 326:0.08252954483032227 327:0.14218200743198395 328:0.032805394381284714 329:3.245032567065209E-4 330:0.0 331:0.0 332:0.0 333:0.013173611834645271 334:0.001419798587448895 335:0.30367976427078247 336:0.30367976427078247 337:0.026295874267816544 338:1.0816775466082618E-4 339:0.0 340:0.0 341:0.0 342:0.0 343:0.007428400684148073 344:0.30367976427078247 345:0.30367976427078247 346:0.03431558609008789 347:0.0 348:0.0 349:0.0 350:0.0 351:0.0 352:0.0024761331733316183 353:0.05955303832888603 354:0.1464858502149582 355:0.03480006009340286 356:0.0011508878087624907 357:0.0 358:0.0 359:0.0 360:0.0 361:0.020257359370589256 362:0.01927148550748825 363:0.24222245812416077 364:0.07990190386772156 365:0.03290748968720436 366:0.0032010599970817566 367:0.0 368:0.0 369:0.020257359370589256 370:0.0 371:0.21087248623371124 372:0.30367976427078247 373:0.12458627671003342 374:0.17932406067848206 375:0.00960317999124527 376:0.0 377:0.0 378:0.0 379:0.02228519879281521 380:0.22494763135910034 381:0.1539442539215088 382:0.10967937856912613 383:0.03312857449054718 384:0.0014924886636435986 385:0.0 386:0.0 387:0.0 388:0.007428400684148073 389:0.05387752130627632 390:0.05560964718461037 391:0.029922230169177055 392:0.003202121937647462 393:0.004477466456592083 394:0.0 395:0.0 396:0.0 397:0.009681794792413712 398:0.0 399:0.02792791835963726 400:0.02743091993033886 401:0.05021088570356369 402:0.0010670199990272522 403:0.0 404:0.0 405:0.009681794792413712 406:0.0 407:0.0 408:0.0366109162569046 409:0.15448331832885742 410:0.11837581545114517 411:0.0032010599970817566 412:0.0 413:0.0 414:0.0 415:0.0 416:0.0020673631224781275 417:0.03856004774570465 418:0.12539757788181305 419:0.01760861463844776 420:0.004477466456592083 421:8.713614079169929E-4 422:0.006937528029084206 423:0.001377191743813455 424:0.0 425:0.006202089134603739 426:0.007622911129146814 427:0.007748206611722708 428:0.00508943572640419 429:0.014935621060431004 430:0.005870318040251732 431:0.0030890260823071003 432:4.5906391460448503E-4 433:0.013420294970273972 434:0.01670103892683983 435:0.002705693244934082 436:0.0 437:0.006110099144279957 438:0.04187317192554474 439:0.005507395137101412 440:0.006954262498766184 441:0.03886117413640022 442:0.0067902239970862865 443:4.1582132689654827E-4 444:0.0 445:0.0 446:0.0527847483754158 447:0.22264140844345093 448:0.015623657964169979 449:0.0030943872407078743 450:0.012953723780810833 451:0.016249706968665123 452:0.0021630993578583 453:0.002739919116720557 454:0.0 455:0.033070873469114304 456:0.06679341942071915 457:0.003185287583619356 458:0.005497477483004332 459:0.021839015185832977 460:0.0025447485968470573 461:0.0027469058986753225 462:0.008219758048653603 463:0.0 464:0.00884744431823492 465:0.013824356719851494 466:8.066916489042342E-4 467:0.009915204718708992 468:0.011639084666967392 469:0.018886765465140343 470:0.042503319680690765 471:0.008117078803479671 472:0.010764889419078827 473:0.09244073182344437 474:0.22352799773216248 475:0.04075002297759056 476:0.0 477:0.05177575722336769 478:0.0013061345089226961 479:0.0 480:0.0 481:0.011238599196076393 482:0.3336203098297119 483:0.3336203098297119 484:0.020246470347046852 485:0.006685234140604734 486:0.0034295418299734592 487:0.034490618854761124 488:0.027388999238610268 489:0.014023690484464169 490:0.0036621415056288242 491:0.12388288229703903 492:0.24250419437885284 493:0.026949116960167885 494:0.04015601798892021 495:0.021688183769583702 496:0.012112271040678024 497:0.020297089591622353 498:0.07189641892910004 499:0.004325354006141424 500:0.013214265927672386 501:0.004608118440955877 502:0.0024200750049203634 503:0.018232477828860283 504:0.03188065439462662 505:0.004804443567991257 506:0.04200270026922226 507:0.18616847693920135 508:0.0927385613322258 509:0.20595663785934448 510:0.12183628976345062 511:0.1481693685054779 512:0.0 513:0.013829044066369534 514:0.0 515:0.026516396552324295 516:0.06996286660432816 517:0.20165018737316132 518:0.3336203098297119 519:0.16465690732002258 520:0.0581057146191597 521:0.020055701956152916 522:0.0 523:0.014524239115417004 524:0.008214029483497143 525:0.017411798238754272 526:0.05200352147221565 527:0.2788916528224945 528:0.08136336505413055 529:0.05758108198642731 530:0.08439647406339645 531:0.02962781861424446 532:0.02965584769845009 533:0.023786703124642372 534:0.062177177518606186 535:0.04341951385140419 536:0.06405168026685715 537:0.0 538:0.0018004406010732055 539:0.008076457306742668 540:0.026395948603749275 541:0.0 542:0.026516396552324295 543:0.16870571672916412 544:0.06480390578508377 545:0.06253319978713989 546:0.005466394126415253 547:0.008677332662045956 548:0.0 549:0.0 550:0.0 551:0.04638528451323509 552:0.07790495455265045 553:0.15462636947631836 554:0.19673995673656464 555:0.025816937908530235 556:0.0 557:0.002719248877838254 558:0.0018873640801757574 559:0.013721282593905926 560:0.0033114347606897354 561:0.00927731953561306 562:0.06299711018800735 563:0.10491197556257248 564:0.01453830674290657 565:0.01620396599173546 566:0.024999571964144707 567:0.009685882367193699 568:0.05814307928085327 569:0.022375866770744324 570:0.06282258778810501 571:0.010147818364202976 572:0.011085440404713154 573:0.0 574:0.005401321221143007 575:0.005613942164927721 576:0.0286396574229002 577:0.00211582169868052 578:0.0 579:0.0 580:0.0 581:6.419537239708006E-4 582:0.023489389568567276 583:0.02948617935180664 584:0.001710383570753038 585:0.00211582169868052 586:0.0 587:0.0 588:0.0 589:0.0 590:2.1796667715534568E-4 591:0.11860151588916779 592:0.16414225101470947 593:0.026145027950406075 594:0.0 595:0.0 596:0.0 597:0.0 598:0.001365446369163692 599:0.0026337977033108473 600:0.08374997228384018 601:0.14983412623405457 602:0.007004623766988516 603:0.0 604:3.022888267878443E-4 605:0.0 606:0.0011659892043098807 607:7.907204562798142E-4 608:0.0038102827966213226 609:0.012949509546160698 610:0.018435459583997726 611:0.0012317185755819082 612:0.001800057478249073 613:0.014635142870247364 614:0.0 615:6.530596292577684E-4 616:0.0034249811433255672 617:0.0200106892734766 618:0.018179306760430336 619:0.024435658007860184 620:0.005131151061505079 621:0.0064987256191670895 622:0.03251789137721062 623:0.0 624:0.0019591788295656443 625:0.030448688194155693 626:0.04313788190484047 627:0.2398187667131424 628:0.3005959987640381 629:0.07843507826328278 630:0.008108638226985931 631:0.0 632:0.0 633:0.0 634:0.0067245811223983765 635:0.06271868944168091 636:0.3005959987640381 637:0.3005959987640381 638:0.02101387456059456 639:0.0 640:9.068664512597024E-4 641:0.0 642:0.0 643:0.0 644:0.011462332680821419 645:0.16032952070236206 646:0.054661866277456284 647:4.1057285852730274E-4 648:0.005400171969085932 649:0.0140924621373415 650:0.0 651:0.00300005916506052 652:0.012404046952724457 653:0.011760637164115906 654:0.0028071883134543896 655:0.01509418897330761 656:0.002494626445695758 657:0.011646333150565624 658:0.01083929743617773 659:0.0 660:0.00900017749518156 661:0.09773337095975876 662:0.15672646462917328 663:0.2615671455860138 664:0.03598139062523842 665:0.007483879569917917 666:0.003500910010188818 667:0.0 668:0.0 669:0.0 670:0.02017374336719513 671:0.3005959987640381 672:0.3005959987640381 673:0.06541799008846283 674:0.0 675:0.0 676:0.0 677:0.0 678:0.0 679:0.0 680:0.08982550352811813 681:0.2664734423160553 682:0.026547493413090706 683:0.002898013684898615 684:6.005015457049012E-4 685:0.004019048996269703 686:0.0 687:3.4696009242907166E-4 688:7.09701154846698E-4 689:0.0 690:0.005146584007889032 691:0.02290579304099083 692:0.00762375071644783 693:0.006812324281781912 694:0.0 695:0.0 696:0.001040880219079554 697:0.0021291037555783987 698:0.04735742136836052 699:0.15408261120319366 700:0.030087916180491447 701:0.02249826118350029 702:0.0030591737013310194 703:0.0 704:0.0 705:0.0 706:0.0 707:0.10432985424995422 708:0.3005959987640381 709:0.1614861786365509 710:0.012156766839325428 711:0.0 712:0.0 713:0.0 714:0.0 715:0.0 716:0.018928412348031998 717:0.1323222517967224 718:0.08073840290307999 719:0.01274629682302475 720:0.0018015047535300255 721:0.0 722:0.0 723:0.0 724:0.029484447091817856 725:0.1177288219332695 726:0.06139440834522247 727:0.034689612686634064 728:0.0 729:0.0 730:0.0 731:0.0 732:0.001782636041752994 733:0.059146441519260406 734:0.12036819010972977 735:0.08171286433935165 736:0.019687671214342117 737:0.0 738:0.0 739:0.004507227335125208 740:0.0 741:0.006720705423504114 742:0.01147114485502243 743:0.01412226352840662 744:0.06325862556695938 745:0.01914825290441513 746:0.017997844144701958 747:0.009566683322191238 748:0.004070462193340063 749:0.0 750:0.004118394106626511 751:0.001901239505968988 752:0.008967074565589428 753:0.011066028848290443 754:0.002349992049857974 755:0.017457854002714157 756:0.01410511415451765 757:0.0 758:0.0 759:0.01981976069509983 760:0.14381282031536102 761:0.30196842551231384 762:0.15206150710582733 763:0.011563204228878021 764:0.004959254991263151 765:0.0010276142274960876 766:0.007917777635157108 767:0.0028235039208084345 768:0.012304907664656639 769:0.21574822068214417 770:0.30196842551231384 771:0.0683344155550003 772:0.005699413828551769 773:0.0 774:0.0 775:0.02375333197414875 776:0.008470511995255947 777:0.047068752348423004 778:0.08052977919578552 779:0.04350026696920395 780:0.07092878967523575 781:0.04661017283797264 782:0.025879787281155586 783:0.0012431195937097073 784:0.0 785:0.0 786:0.004604942165315151 787:0.007245044689625502 788:0.029764220118522644 789:0.03799999877810478 790:0.042113181203603745 791:0.09519407898187637 792:0.011531403288245201 793:0.0023805524688214064 794:0.00975853856652975 795:0.012030599638819695 796:0.30196842551231384 797:0.30196842551231384 798:0.020937491208314896 799:0.0 800:0.014877763576805592 801:0.0030828427989035845 802:0.02375333197414875 803:0.008630013093352318 804:0.037387583404779434 805:0.30196842551231384 806:0.30196842551231384 807:0.006979162804782391 808:0.0 809:0.0 810:0.0 811:0.0712599903345108 812:0.038507428020238876 813:0.09931185841560364 814:0.15298089385032654 815:0.1583610326051712 816:0.04321722313761711 817:0.004164486657828093 818:0.02752649039030075 819:0.0 820:0.010083808563649654 821:0.037852175533771515 822:0.023913655430078506 823:0.022115115076303482 824:0.04259760305285454 825:0.014405740424990654 826:0.012493460439145565 827:0.11895222961902618 828:0.04432842880487442 829:0.0071416571736335754 830:0.034600306302309036 831:0.01177050732076168 832:0.19721673429012299 833:0.10203127562999725 834:0.003190083894878626 835:0.0 836:0.0 837:0.0 838:0.00510091008618474 839:0.011401714757084846 840:0.04841313883662224 841:0.2462177276611328 842:0.1474555879831314 843:0.00957025121897459 844:0.02317400462925434 845:0.007744344882667065 846:0.0 847:0.015302728861570358 848:0.044162724167108536 849:0.07888974994421005 850:0.1432846486568451 851:0.0962626039981842 852:0.0 853:0.0077246688306331635 854:0.0025814485270529985 855:0.0 856:0.003361269598826766 857:0.02987273596227169 858:0.014207154512405396 859:0.04017685353755951 860:0.04274043068289757 861:0.0 862:0.0 863:0.01568024232983589 864:0.011252887547016144 865:0.003644690616056323 866:0.010012409649789333 867:0.011855260469019413 868:0.0037637315690517426 869:0.004159211181104183 870:0.0 871:0.0 872:0.003444319823756814 873:0.0033032901119440794 874:0.007280074991285801 875:0.005904728546738625 876:0.016692612320184708 877:0.0170583575963974 878:0.009004708379507065 879:8.342198561877012E-4 880:0.011593752540647984 881:0.0023990157060325146 882:0.01513242069631815 883:0.0 884:0.0 885:0.0017172381049022079 886:0.05346131697297096 887:0.14142954349517822 888:2.780732756946236E-4 889:0.0038645844906568527 890:0.004420805722475052 891:0.00579447764903307 892:0.0 893:0.0 894:0.00702617596834898 895:0.06032763421535492 896:0.1340387612581253 897:0.0 898:0.0 899:0.0 900:0.0 901:0.0440140962600708 902:0.03837020695209503 903:0.009331507608294487 904:0.0012545771896839142 905:0.0 906:0.0 907:0.007197604048997164 908:0.032243989408016205 909:0.028660938143730164 910:0.039031270891427994 911:0.03928709775209427 912:0.021703466773033142 913:0.005686118733137846 914:0.0 915:0.012287366203963757 916:0.07877042889595032 917:0.1071418821811676 918:0.04469951242208481 919:0.0 920:0.0 921:5.724127404391766E-4 922:0.1260933130979538 923:0.2869129776954651 924:0.03650111332535744 925:0.09855762124061584 926:0.04601095989346504 927:0.009296455420553684 928:0.0 929:0.0 930:0.002342058578506112 931:0.18889160454273224 932:0.2869129776954651 933:0.04148506000638008 934:0.0 935:0.0 936:0.0 937:0.0459088496863842 938:0.00494378013536334 939:0.0017932511400431395 940:0.0 941:0.0 942:0.05442436411976814 943:0.06900452077388763 944:0.08703461289405823 945:0.09412547200918198 946:0.11037689447402954 947:0.007913012057542801 948:0.005379753652960062 949:0.0 950:0.0 951:0.11520975828170776 952:0.19541192054748535 953:0.14533373713493347 954:0.14948557317256927 955:0.0 956:0.0 957:0.01915128156542778 958:0.15626639127731323 959:0.2869129776954651 960:0.2869129776954651 961:0.14421309530735016 962:0.05106021836400032 963:0.015341848134994507 964:0.0 965:0.004689821973443031 966:0.021973999217152596 967:0.09843897819519043 968:0.2869129776954651 969:0.11731108278036118 970:0.0 971:0.0 972:0.0 973:0.00957260001450777 974:0.0 975:0.0 976:0.0 977:0.0 978:0.12979641556739807 979:0.10337698459625244 980:0.09178487956523895 981:0.015613622963428497 982:0.028717800974845886 983:0.0 984:0.0 985:0.0 986:0.0 987:0.06991812586784363 988:0.22104348242282867 989:0.15191563963890076 990:0.020480649545788765 991:0.0 992:0.0 993:0.09024252742528915 994:0.11720778048038483 995:0.034322671592235565 996:0.08204562962055206 997:0.23082920908927917 998:0.058481696993112564 999:0.0 1000:0.0 1001:0.014069467782974243 1002:0.06071693077683449 1003:0.16852323710918427 1004:0.07149961590766907 1005:0.005560594145208597 1006:0.0 1007:0.0 1008:0.0 1009:0.0 1010:0.0 1011:0.0 1012:0.0 1013:0.0 1014:0.0 1015:0.0 1016:0.0 1017:0.0 1018:0.0 1019:0.0 1020:0.0 1021:0.0 1022:0.0 1023:0.0 1024:0.0 1025:0.0 1026:0.0 1027:0.0 1028:0.0 1029:0.0 1030:0.0 1031:0.04632195830345154 1032:0.0 1033:0.0 1034:0.0 1035:0.0 1036:0.0 1037:0.0 1038:0.0 1039:6.994216237217188E-4 1040:0.21033339202404022 1041:0.0 1042:0.0 1043:0.0 1044:0.0 1045:0.03815025836229324 1046:0.0 1047:0.0 1048:0.0 1049:0.0 1050:0.0 1051:0.0 1052:0.0 1053:0.03815025836229324 1054:0.11107687652111053 1055:0.0 1056:0.0 1057:0.0 1058:0.0 1059:0.0 1060:0.0 1061:0.0 1062:0.11107687652111053 1063:0.16922669112682343 1064:0.008683509193360806 1065:0.025984274223446846 1066:0.02614755742251873 1067:0.08593173325061798 1068:0.0 1069:0.0 1070:0.0 1071:0.08301947265863419 1072:0.03158872202038765 1073:0.02605052851140499 1074:0.07795281708240509 1075:0.0968131273984909 1076:0.27911612391471863 1077:0.0 1078:0.0 1079:0.0 1080:0.0028529854025691748 1081:0.17215496301651 1082:9.847996261669323E-5 1083:0.0 1084:0.0 1085:0.0 1086:0.0 1087:0.0 1088:0.0 1089:0.1490815132856369 1090:0.27911612391471863 1091:0.0 1092:0.0 1093:0.0 1094:0.0 1095:0.0 1096:0.0 1097:0.0 1098:0.27911612391471863 1099:0.27911612391471863 1100:0.03806638345122337 1101:0.07795281708240509 1102:0.01110345870256424 1103:0.013188723474740982 1104:0.0 1105:0.008099457249045372 1106:0.010905923321843147 1107:0.27911612391471863 1108:0.11779013276100159 1109:0.08215686678886414 1110:0.23385846614837646 1111:0.0623675100505352 1112:0.16359326243400574 1113:0.004796893801540136 1114:0.024298373609781265 1115:0.03271777182817459 1116:0.02206694521009922 1117:0.12767787277698517 1118:2.9543990967795253E-4 1119:0.0 1120:0.0 1121:0.0 1122:0.0 1123:0.0 1124:0.0 1125:0.04408843070268631 1126:0.27911612391471863 1127:0.0 1128:0.0 1129:0.0 1130:0.0 1131:0.0 1132:0.0 1133:0.0 1134:0.18298685550689697 1135:0.24666549265384674 1136:0.004005285445600748 1137:0.0 1138:7.95868574641645E-4 1139:0.0127748167142272 1140:0.010500466451048851 1141:0.024298373609781265 1142:0.03271777182817459 1143:0.27911612391471863 1144:0.03038879670202732 1145:0.0013350951485335827 1146:0.0 1147:0.0023876058403402567 1148:0.115170419216156 1149:0.05289175361394882 1150:0.0728951171040535 1151:0.09815331548452377 1152:0.04406420513987541 1153:0.013420294970273972 1154:0.01670103892683983 1155:0.002705693244934082 1156:0.0 1157:0.006110099144279957 1158:0.04187317192554474 1159:0.005507395137101412 1160:0.006954262498766184 1161:0.03886117413640022 1162:0.0067902239970862865 1163:4.1582132689654827E-4 1164:0.0 1165:0.0 1166:0.0527847483754158 1167:0.22264140844345093 1168:0.015623657964169979 1169:0.0030943872407078743 1170:0.012953723780810833 1171:0.016249706968665123 1172:0.0021630993578583 1173:0.002739919116720557 1174:0.0 1175:0.033070873469114304 1176:0.06679341942071915 1177:0.003185287583619356 1178:0.005497477483004332 1179:0.021839015185832977 1180:0.0025447485968470573 1181:0.0027469058986753225 1182:0.008219758048653603 1183:0.0 1184:0.00884744431823492 1185:0.013824356719851494 1186:8.066916489042342E-4 1187:0.009915204718708992 1188:0.011639084666967392 1189:0.018886765465140343 1190:0.042503319680690765 1191:0.008117078803479671 1192:0.010764889419078827 1193:0.09244073182344437 1194:0.22352799773216248 1195:0.04075002297759056 1196:0.0 1197:0.05177575722336769 1198:0.0013061345089226961 1199:0.0 1200:0.0 1201:0.011238599196076393 1202:0.3336203098297119 1203:0.3336203098297119 1204:0.020246470347046852 1205:0.006685234140604734 1206:0.0034295418299734592 1207:0.034490618854761124 1208:0.027388999238610268 1209:0.014023690484464169 1210:0.0036621415056288242 1211:0.12388288229703903 1212:0.24250419437885284 1213:0.026949116960167885 1214:0.04015601798892021 1215:0.021688183769583702 1216:0.012112271040678024 1217:0.020297089591622353 1218:0.07189641892910004 1219:0.004325354006141424 1220:0.013214265927672386 1221:0.004608118440955877 1222:0.0024200750049203634 1223:0.018232477828860283 1224:0.03188065439462662 1225:0.004804443567991257 1226:0.04200270026922226 1227:0.18616847693920135 1228:0.0927385613322258 1229:0.20595663785934448 1230:0.12183628976345062 1231:0.1481693685054779 1232:0.0 1233:0.013829044066369534 1234:0.0 1235:0.026516396552324295 1236:0.06996286660432816 1237:0.20165018737316132 1238:0.3336203098297119 1239:0.16465690732002258 1240:0.0581057146191597 1241:0.020055701956152916 1242:0.0 1243:0.014524239115417004 1244:0.008214029483497143 1245:0.017411798238754272 1246:0.05200352147221565 1247:0.2788916528224945 1248:0.08136336505413055 1249:0.05758108198642731 1250:0.08439647406339645 1251:0.02962781861424446 1252:0.02965584769845009 1253:0.023786703124642372 1254:0.062177177518606186 1255:0.04341951385140419 1256:0.06405168026685715 1257:0.0 1258:0.0018004406010732055 1259:0.008076457306742668 1260:0.026395948603749275 1261:0.0 1262:0.026516396552324295 1263:0.16870571672916412 1264:0.06480390578508377 1265:0.06253319978713989 1266:0.005466394126415253 1267:0.008677332662045956 1268:0.0 1269:0.0 1270:0.0 1271:0.04638528451323509 1272:0.07790495455265045 1273:0.15462636947631836 1274:0.19673995673656464 1275:0.025816937908530235 1276:0.0 1277:0.002719248877838254 1278:0.0018873640801757574 1279:0.013721282593905926 1280:0.0033114347606897354 1281:0.00927731953561306 1282:0.06299711018800735 1283:0.10491197556257248 1284:0.01453830674290657 1285:0.01620396599173546 1286:0.024999571964144707 1287:0.009685882367193699 1288:0.05814307928085327 1289:0.022375866770744324 1290:0.06282258778810501 1291:0.010147818364202976 1292:0.011085440404713154 1293:0.0 1294:0.005401321221143007 1295:0.005613942164927721 1296:0.0286396574229002 1297:0.030893882736563683 1298:0.0 1299:0.004341015126556158 1300:0.019711052998900414 1301:0.0011548807378858328 1302:6.895713158883154E-4 1303:0.0 1304:0.0 1305:0.029951391741633415 1306:0.06665429472923279 1307:0.0035048513673245907 1308:0.003676483640447259 1309:0.028157103806734085 1310:0.06061602011322975 1311:0.16800034046173096 1312:0.03324667364358902 1313:0.023733699694275856 1314:0.10492381453514099 1315:0.1538798213005066 1316:0.12009197473526001 1317:0.02559240348637104 1318:0.05339422449469566 1319:0.19552816450595856 1320:0.11367098987102509 1321:0.0804532989859581 1322:0.07120109349489212 1323:0.05101323500275612 1324:0.038403160870075226 1325:0.085859514772892 1326:0.07677720487117767 1327:0.2166082113981247 1328:0.05430604889988899 1329:0.0 1330:0.0 1331:0.0 1332:0.009574519470334053 1333:0.0 1334:0.02034740336239338 1335:0.04254009202122688 1336:0.04590549319982529 1337:0.012480945326387882 1338:0.006126184947788715 1339:0.0 1340:0.0 1341:0.0 1342:0.053328223526477814 1343:0.13413006067276 1344:0.04159415513277054 1345:0.05824470520019531 1346:0.029656028375029564 1347:0.05735259875655174 1348:0.0804532989859581 1349:0.07120109349489212 1350:0.011477464810013771 1351:0.26874715089797974 1352:0.14691726863384247 1353:0.0873110219836235 1354:0.016654860228300095 1355:0.059301551431417465 1356:0.04202578589320183 1357:0.26874715089797974 1358:0.21502161026000977 1359:0.26874715089797974 1360:0.2209111452102661 1361:0.2567496597766876 1362:0.22275342047214508 1363:0.09894956648349762 1364:0.04055948182940483 1365:0.01240634173154831 1366:0.14160892367362976 1367:0.0243308637291193 1368:0.08679579198360443 1369:0.0 1370:0.008780023083090782 1371:0.01457814872264862 1372:0.028921769931912422 1373:0.05290438234806061 1374:0.05204121395945549 1375:0.014229449443519115 1376:0.0 1377:0.0 1378:0.014643199741840363 1379:0.08848906308412552 1380:0.06043078377842903 1381:0.05949510633945465 1382:0.05457131937146187 1383:0.10389066487550735 1384:0.061493873596191406 1385:0.011112287640571594 1386:0.0038258214481174946 1387:0.19068865478038788 1388:0.12799257040023804 1389:0.03917964547872543 1390:0.0 1391:0.01856786385178566 1392:0.10700992494821548 1393:0.1276044249534607 1394:0.023535648360848427 1395:0.06954969465732574 1396:0.053263381123542786 1397:0.046171884983778 1398:0.0 1399:0.0024996777065098286 1400:0.0266684889793396 1401:0.07585141062736511 1402:0.193820983171463 1403:0.10143214464187622 1404:0.06046751141548157 1405:0.0010760031873360276 1406:0.02201191335916519 1407:0.020048044621944427 1408:0.021951138973236084 1409:0.007488235365599394 1410:0.013289601542055607 1411:0.004743149504065514 1412:0.0 1413:0.0 1414:0.006278516724705696 1415:0.02885372005403042 1416:0.01329619437456131 1417:0.043505940586328506 1418:0.012245001271367073 1419:0.03505995497107506 1420:0.05510208010673523 1421:0.01397807989269495 1422:0.0 1423:0.0010763080790638924 1424:0.0020906170830130577 1425:3.279802040196955E-4 1426:0.02829558588564396 1427:0.021731192246079445 1428:0.11105579137802124 1429:0.05924849584698677 1430:0.011112287640571594 1431:0.0 1432:0.0 1433:0.0 1434:0.0 1435:0.007499033119529486 1436:0.03611290454864502 1437:0.08288724720478058 1438:0.004322335589677095 1439:0.013262026943266392 1440:0.013703368604183197 1441:0.0 1442:0.0 1443:0.0 1444:0.029484447091817856 1445:0.1177288219332695 1446:0.06139440834522247 1447:0.034689612686634064 1448:0.0 1449:0.0 1450:0.0 1451:0.0 1452:0.001782636041752994 1453:0.059146441519260406 1454:0.12036819010972977 1455:0.08171286433935165 1456:0.019687671214342117 1457:0.0 1458:0.0 1459:0.004507227335125208 1460:0.0 1461:0.006720705423504114 1462:0.01147114485502243 1463:0.01412226352840662 1464:0.06325862556695938 1465:0.01914825290441513 1466:0.017997844144701958 1467:0.009566683322191238 1468:0.004070462193340063 1469:0.0 1470:0.004118394106626511 1471:0.001901239505968988 1472:0.008967074565589428 1473:0.011066028848290443 1474:0.002349992049857974 1475:0.017457854002714157 1476:0.01410511415451765 1477:0.0 1478:0.0 1479:0.01981976069509983 1480:0.14381282031536102 1481:0.30196842551231384 1482:0.15206150710582733 1483:0.011563204228878021 1484:0.004959254991263151 1485:0.0010276142274960876 1486:0.007917777635157108 1487:0.0028235039208084345 1488:0.012304907664656639 1489:0.21574822068214417 1490:0.30196842551231384 1491:0.0683344155550003 1492:0.005699413828551769 1493:0.0 1494:0.0 1495:0.02375333197414875 1496:0.008470511995255947 1497:0.047068752348423004 1498:0.08052977919578552 1499:0.04350026696920395 1500:0.07092878967523575 1501:0.04661017283797264 1502:0.025879787281155586 1503:0.0012431195937097073 1504:0.0 1505:0.0 1506:0.004604942165315151 1507:0.007245044689625502 1508:0.029764220118522644 1509:0.03799999877810478 1510:0.042113181203603745 1511:0.09519407898187637 1512:0.011531403288245201 1513:0.0023805524688214064 1514:0.00975853856652975 1515:0.012030599638819695 1516:0.30196842551231384 1517:0.30196842551231384 1518:0.020937491208314896 1519:0.0 1520:0.014877763576805592 1521:0.0030828427989035845 1522:0.02375333197414875 1523:0.008630013093352318 1524:0.037387583404779434 1525:0.30196842551231384 1526:0.30196842551231384 1527:0.006979162804782391 1528:0.0 1529:0.0 1530:0.0 1531:0.0712599903345108 1532:0.038507428020238876 1533:0.09931185841560364 1534:0.15298089385032654 1535:0.1583610326051712 1536:0.04321722313761711 1537:0.004164486657828093 1538:0.02752649039030075 1539:0.0 1540:0.010083808563649654 1541:0.037852175533771515 1542:0.023913655430078506 1543:0.022115115076303482 1544:0.04259760305285454 1545:0.014405740424990654 1546:0.012493460439145565 1547:0.11895222961902618 1548:0.04432842880487442 1549:0.0071416571736335754 1550:0.034600306302309036 1551:0.01177050732076168 1552:0.19721673429012299 1553:0.10203127562999725 1554:0.003190083894878626 1555:0.0 1556:0.0 1557:0.0 1558:0.00510091008618474 1559:0.011401714757084846 1560:0.04841313883662224 1561:0.2462177276611328 1562:0.1474555879831314 1563:0.00957025121897459 1564:0.02317400462925434 1565:0.007744344882667065 1566:0.0 1567:0.015302728861570358 1568:0.044162724167108536 1569:0.07888974994421005 1570:0.1432846486568451 1571:0.0962626039981842 1572:0.0 1573:0.0077246688306331635 1574:0.0025814485270529985 1575:0.0 1576:0.003361269598826766 1577:0.02987273596227169 1578:0.014207154512405396 1579:0.04017685353755951 1580:0.04274043068289757 1581:0.0 1582:0.0 1583:0.01568024232983589 1584:0.011252887547016144 1585:0.0010687749600037932 1586:0.002358660800382495 1587:0.0035820805933326483 1588:0.009283659048378468 1589:0.036741066724061966 1590:0.019210170954465866 1591:0.0 1592:0.0 1593:6.270836456678808E-4 1594:0.0 1595:0.01540851965546608 1596:0.08112287521362305 1597:0.043175406754016876 1598:0.050593048334121704 1599:0.035458579659461975 1600:0.024120835587382317 1601:0.0 1602:0.0 1603:0.0 1604:0.004909116309136152 1605:0.04015541449189186 1606:0.08411666750907898 1607:0.0331539586186409 1608:0.08531379699707031 1609:0.013982899487018585 1610:9.915389819070697E-4 1611:2.0545755978673697E-4 1612:0.0 1613:0.01657046563923359 1614:0.014756089076399803 1615:0.01396958902478218 1616:0.011051318608224392 1617:0.03256307914853096 1618:0.0066269561648368835 1619:0.0029746172949671745 1620:6.163726793602109E-4 1621:0.002028481336310506 1622:7.105346885509789E-4 1623:0.0012273662723600864 1624:0.006137395743280649 1625:0.0525047592818737 1626:0.08831415325403214 1627:0.03799256682395935 1628:0.027357447892427444 1629:0.0018812509952113032 1630:0.0 1631:3.0198818421922624E-4 1632:0.017267616465687752 1633:0.010708349756896496 1634:0.09918931871652603 1635:0.2189536839723587 1636:0.18434391915798187 1637:0.24265259504318237 1638:0.03327395021915436 1639:0.0026120604015886784 1640:1.0066273534903303E-4 1641:0.008835399523377419 1642:0.009849261492490768 1643:0.07772937417030334 1644:0.2688687741756439 1645:0.1863054633140564 1646:0.05728187784552574 1647:0.022913891822099686 1648:0.007836180739104748 1649:0.005349028389900923 1650:0.07605995237827301 1651:0.006634891498833895 1652:0.017352858558297157 1653:0.09272455424070358 1654:0.010081217624247074 1655:0.011265403591096401 1656:0.035467728972435 1657:0.0 1658:0.03784894198179245 1659:0.030269257724285126 1660:0.03516140580177307 1661:0.004782500676810741 1662:0.022021200507879257 1663:0.03452109545469284 1664:0.03028690628707409 1665:0.0 1666:0.0 1667:0.17157498002052307 1668:0.22844284772872925 1669:0.06955600529909134 1670:0.055171798914670944 1671:0.2508348524570465 1672:0.060409218072891235 1673:0.14438746869564056 1674:0.011091317050158978 1675:0.00912365224212408 1676:0.03638258948922157 1677:0.16320939362049103 1678:0.2688687741756439 1679:0.10929642617702484 1680:0.2688687741756439 1681:0.050082460045814514 1682:0.01810242235660553 1683:0.011983812786638737 1684:0.027370955795049667 1685:0.012454734183847904 1686:0.0530594103038311 1687:0.09489978849887848 1688:0.013837830163538456 1689:0.07832932472229004 1690:0.0054442849941551685 1691:0.03753584250807762 1692:0.024860123172402382 1693:0.0 1694:0.028432518243789673 1695:0.06819308549165726 1696:0.05547412484884262 1697:9.739136439748108E-4 1698:0.0 1699:0.0 1700:0.0 1701:0.0 1702:0.0 1703:0.15434710681438446 1704:0.2688687741756439 1705:0.1020117774605751 1706:3.2463789102621377E-4 1707:0.0 1708:0.0 1709:0.0 1710:0.0 1711:0.07537754625082016 1712:0.11136679351329803 1713:0.2688687741756439 1714:0.1540096402168274 1715:3.845606406684965E-4 1716:0.0 1717:0.0 1718:0.0 1719:0.01307624951004982 1720:0.03542562201619148 1721:0.15749764442443848 1722:0.1226792186498642 1723:0.029596544802188873 1724:0.0011536820093169808 1725:0.0 1726:9.400693816132843E-4 1727:0.012251774780452251 1728:0.03922874853014946 
0.05235589909854996 1:8.157325792126358E-4 2:8.161464938893914E-4 3:0.0024422146379947662 4:0.0 5:0.0028583351522684097 6:0.0 7:0.0 8:0.002619363833218813 9:0.0013584946282207966 10:0.00945563055574894 11:0.002448439598083496 12:0.007326645310968161 13:0.01957191340625286 14:0.014928551390767097 15:0.0 16:0.0 17:0.0040338123217225075 18:0.005486779380589724 19:0.003151876851916313 20:0.0 21:0.003745658090338111 22:0.08698165416717529 23:0.03696000203490257 24:0.0 25:0.0 26:0.0010535636683925986 27:0.0017686198698356748 28:0.0 29:0.0 30:0.039766766130924225 31:0.03102835826575756 32:0.044874407351017 33:0.0 34:0.0 35:0.0 36:0.0 37:0.005535755772143602 38:0.008142516948282719 39:0.0059740375727415085 40:0.008250047452747822 41:0.0017858520150184631 42:0.0 43:0.0 44:0.003553684800863266 45:0.003388806479051709 46:0.03301551192998886 47:0.017069322988390923 48:0.018588725477457047 49:0.07475768029689789 50:0.017860952764749527 51:0.0 52:0.0 53:0.0022381253074854612 54:0.005831747781485319 55:0.010684804990887642 56:0.003975687548518181 57:0.02878035232424736 58:0.2819259762763977 59:0.09829352796077728 60:0.0 61:0.0 62:3.5118788946419954E-4 63:0.0018620977643877268 64:0.0 65:0.0227853711694479 66:0.26933300495147705 67:0.20397020876407623 68:0.19308814406394958 69:0.0 70:0.0 71:0.0 72:0.0 73:0.012771191075444221 74:0.013156043365597725 75:0.001083125825971365 76:0.0119162667542696 77:0.01105202455073595 78:0.0015705385012552142 79:0.0 80:0.0 81:0.002215469954535365 82:0.09839516878128052 83:0.15451209247112274 84:0.046264950186014175 85:0.07681160420179367 86:0.034969571977853775 87:5.235128337517381E-4 88:0.0 89:0.0 90:0.0036482843570411205 91:0.06568063050508499 92:0.2819259762763977 93:0.0949004516005516 94:0.27239689230918884 95:0.10639995336532593 96:0.0 97:0.0 98:0.026620803400874138 99:0.025011666119098663 100:0.0 101:0.05666647478938103 102:0.09442335367202759 103:0.2819259762763977 104:0.2819259762763977 105:0.0 106:0.0 107:0.008873600512742996 108:0.007931857369840145 109:0.0031538887415081263 110:0.003915469627827406 111:0.0014953477075323462 112:0.01622537150979042 113:0.02612067200243473 114:0.004711615853011608 115:0.0 116:0.0 117:0.0017104657599702477 118:0.03662429749965668 119:0.1658201664686203 120:0.1733945906162262 121:0.10382053256034851 122:0.07302562147378922 123:0.0015705385012552142 124:0.0 125:0.0 126:0.0 127:0.10394982993602753 128:0.2819259762763977 129:0.1251930594444275 130:0.045094892382621765 131:0.014934373088181019 132:0.0 133:0.0 134:0.07986240833997726 135:0.11199295520782471 136:0.049111779779195786 137:0.1054963544011116 138:0.07338816672563553 139:0.18678408861160278 140:0.2819259762763977 141:0.0 142:0.0 143:0.026620803400874138 144:0.037330981343984604 145:0.0029474280308932066 146:0.011323167942464352 147:0.007540558464825153 148:0.0 149:0.004263654816895723 150:0.0 151:0.0 152:0.002699625678360462 153:0.0029477167408913374 154:0.01432508509606123 155:0.01967346854507923 156:0.010719481855630875 157:0.0 158:0.011138929054141045 159:0.0013626612490043044 160:0.004531489685177803 161:5.279285251162946E-4 162:0.005918568000197411 163:0.0039032180793583393 164:0.0014089829055592418 165:0.0 166:0.08196740597486496 167:0.10387664288282394 168:0.004087983630597591 169:0.013594469055533409 170:0.001583785517141223 171:0.0019728560000658035 172:0.0 173:0.0 174:0.004447529092431068 175:0.09234649688005447 176:0.10549160093069077 177:0.0 178:0.0 179:0.0 180:0.0 181:0.045076943933963776 182:0.05104914307594299 183:0.0025135197211056948 184:0.0 185:0.0 186:0.0 187:0.01688637211918831 188:0.01685619354248047 189:0.017522519454360008 190:0.06278476864099503 191:0.09816041588783264 192:0.0035731603857129812 193:0.0 194:0.0033218141179531813 195:0.013690871186554432 196:0.0404936745762825 197:0.09979281574487686 198:0.021146060898900032 199:0.0065620215609669685 200:4.696609394159168E-4 201:0.0 202:0.12058406323194504 203:0.2944253087043762 204:0.09473855048418045 205:0.06532797962427139 206:0.0374877005815506 207:0.005918568000197411 208:0.0 209:0.0 210:0.01334258820861578 211:0.1523064374923706 212:0.2944253087043762 213:0.03962308168411255 214:0.0 215:0.0 216:0.0 217:0.06904855370521545 218:0.014039114117622375 219:0.0 220:0.0 221:0.0 222:0.04037493094801903 223:0.10081347078084946 224:0.05617545172572136 225:0.08751650154590607 226:0.1103341355919838 227:0.030845480039715767 228:0.0 229:0.0 230:0.0099654421210289 231:0.07591965794563293 232:0.14597629010677338 233:0.24968822300434113 234:0.08535824716091156 235:0.0 236:0.0 237:0.01912692002952099 238:0.1815115362405777 239:0.2944253087043762 240:0.22708362340927124 241:0.17174245417118073 242:0.08117016404867172 243:0.0 244:0.0 245:0.0 246:0.007260788232088089 247:0.0952271893620491 248:0.2944253087043762 249:0.08409832417964935 250:0.0 251:0.0 252:0.0 253:0.005589758045971394 254:0.0 255:0.0 256:0.0 257:0.0 258:0.1265484094619751 259:0.10744914412498474 260:0.0817645713686943 261:0.030469108372926712 262:0.016769275069236755 263:0.0 264:0.0 265:0.0 266:0.0 267:0.05161783844232559 268:0.24178019165992737 269:0.11320477724075317 270:0.059466443955898285 271:0.0 272:0.003130199620500207 273:0.06580168753862381 274:0.14554958045482635 275:0.02576356567442417 276:0.06498758494853973 277:0.2625301480293274 278:0.03535237908363342 279:0.0 280:0.0 281:0.0010433999123051763 282:0.046710073947906494 283:0.1717115044593811 284:0.07963022589683533 285:0.003045008284971118 286:0.0 287:0.0 288:0.0 289:0.004972721915692091 290:0.022486303001642227 291:0.041190698742866516 292:0.012502274475991726 293:0.0 294:0.0 295:0.0 296:0.0 297:0.004484680946916342 298:0.021848164498806 299:0.23035915195941925 300:0.18067586421966553 301:0.004167424514889717 302:0.0 303:0.0 304:0.0 305:0.0 306:0.0 307:0.010382693260908127 308:0.2276279777288437 309:0.26000767946243286 310:0.0064371670596301556 311:0.0 312:0.0 313:0.0 314:0.0 315:9.918827709043398E-5 316:0.01076403446495533 317:0.026970084756612778 318:0.06295894086360931 319:0.03316376730799675 320:0.0064062499441206455 321:0.0 322:0.0 323:0.0 324:2.9756486765109E-4 325:0.016672145575284958 326:0.012289358302950859 327:0.27078551054000854 328:0.053982265293598175 329:0.006787791382521391 330:0.0 331:0.0 332:0.0 333:0.016672145575284958 334:0.006794680841267109 335:0.2264346480369568 336:0.27740567922592163 337:0.12329686433076859 338:0.06128069385886192 339:0.006251093931496143 340:0.0 341:0.0 342:0.0 343:0.01390383206307888 344:0.27740567922592163 345:0.2768119275569916 346:0.034462425857782364 347:0.0424460731446743 348:0.0020836980547755957 349:0.0 350:0.0 351:0.008777418173849583 352:0.04080627113580704 353:0.056943152099847794 354:0.03455474227666855 355:0.019235333427786827 356:0.006575089413672686 357:0.0 358:0.0 359:0.0 360:0.026332253590226173 361:0.018942315131425858 362:0.0 363:0.15419363975524902 364:0.0735003650188446 365:0.0926956832408905 366:0.0 367:0.0 368:0.0 369:0.018942315131425858 370:0.0 371:0.006297294981777668 372:0.1966206133365631 373:0.2615029513835907 374:0.27740567922592163 375:0.018753282725811005 376:0.0 377:0.0 378:0.0 379:0.008676465600728989 380:0.024069255217909813 381:0.07689452916383743 382:0.21492794156074524 383:0.16016362607479095 384:0.010058249346911907 385:0.0 386:0.0 387:0.0030430948827415705 388:0.008152882568538189 389:0.029975732788443565 390:0.004760850686579943 391:0.03148752450942993 392:0.028879621997475624 393:0.011421465314924717 394:0.0 395:0.0 396:0.008552012033760548 397:0.006022233981639147 398:0.0 399:0.0 400:0.056136395782232285 401:0.08065452426671982 402:0.0 403:0.0 404:0.0 405:0.006022233981639147 406:0.0 407:0.0 408:0.11260915547609329 409:0.22068223357200623 410:0.06810194253921509 411:0.0 412:0.0 413:0.0 414:0.0 415:0.025154495611786842 416:0.0012131973635405302 417:0.0793040469288826 418:0.08386857807636261 419:0.010941802524030209 420:0.001269051805138588 421:0.0050195325165987015 422:0.001677439664490521 423:6.494314875453711E-4 424:0.012817173264920712 425:0.0036395920906215906 426:0.0 427:0.00998370349407196 428:0.013966224156320095 429:0.00606884527951479 430:0.0030488704796880484 431:0.0010188790038228035 432:2.1647715766448528E-4 433:0.010618845000863075 434:0.01440559234470129 435:0.011117496527731419 436:0.0 437:0.0 438:0.025140970945358276 439:0.008146282285451889 440:0.015451917424798012 441:0.021997636184096336 442:0.008040161803364754 443:0.011581712402403355 444:0.002212668303400278 445:0.0 446:0.019827166572213173 447:0.1822599470615387 448:0.11121456325054169 449:0.007271719630807638 450:0.0056785717606544495 451:0.0 452:0.002310721203684807 453:0.007929147221148014 454:0.004520908463746309 455:0.06422750651836395 456:0.09936940670013428 457:0.05758480727672577 458:0.0 459:0.0 460:0.0 461:0.0069321636110544205 462:0.007986949756741524 463:0.012198157608509064 464:0.018220484256744385 465:0.005434069316834211 466:0.008171348832547665 467:5.68449788261205E-4 468:0.003925931639969349 469:0.005063115619122982 470:0.05903298780322075 471:0.07479911297559738 472:0.06131475046277046 473:0.05078032612800598 474:0.008380324579775333 475:0.03975270688533783 476:0.1651722937822342 477:0.04425356164574623 478:0.015189346857368946 479:0.04763782396912575 480:0.07054038345813751 481:0.28138139843940735 482:0.28138139843940735 483:0.13730761408805847 484:0.14993244409561157 485:0.04938347637653351 486:0.00997398141771555 487:0.049164947122335434 488:0.0069321636110544205 489:0.03332336246967316 490:0.09650550037622452 491:0.28138139843940735 492:0.12360725551843643 493:0.11618022620677948 494:0.0033232879359275103 495:0.049164947122335434 496:0.016388315707445145 497:0.020796488970518112 498:0.046083658933639526 499:0.05117843672633171 500:0.006369530223309994 501:0.02433384582400322 502:0.04261249303817749 503:0.0017053495394065976 504:0.028166109696030617 505:0.0 506:0.15508194267749786 507:0.1701950877904892 508:0.21791940927505493 509:0.02327374741435051 510:0.019819777458906174 511:0.030260207131505013 512:0.04789334535598755 513:0.0 514:0.0 515:0.1084975004196167 516:0.2611836791038513 517:0.28138139843940735 518:0.2044459879398346 519:0.006606592331081629 520:0.03352804109454155 521:0.01800793595612049 522:0.0 523:0.029753215610980988 524:0.0 525:0.08744682371616364 526:0.21881099045276642 527:0.23997776210308075 528:6.926578935235739E-4 529:0.09367387741804123 530:0.012175949290394783 531:0.0291299968957901 532:0.037274815142154694 533:0.010058261454105377 534:0.019905226305127144 535:0.11668373644351959 536:0.018277041614055634 537:0.016075177118182182 538:0.011173219420015812 539:0.0066182538866996765 540:0.05133093520998955 541:0.006192447617650032 542:0.04766744375228882 543:0.09029799699783325 544:0.0680321604013443 545:0.019040921702980995 546:0.05945933610200882 547:0.0 548:0.0 549:0.0 550:0.0079344492405653 551:0.060924239456653595 552:0.09015477448701859 553:0.1702014058828354 554:0.07619833201169968 555:0.019819777458906174 556:0.0 557:0.0 558:0.0 559:0.09538169205188751 560:0.015749940648674965 561:0.01666221395134926 562:0.07376478612422943 563:0.060729797929525375 564:0.0 565:0.007968602702021599 566:0.0020801289938390255 567:0.022022174671292305 568:0.06053642928600311 569:0.03017478436231613 570:0.0 571:0.034893330186605453 572:0.02822582609951496 573:0.0 574:0.023905809968709946 575:0.0062403869815170765 576:0.024792369455099106 577:0.003434538608416915 578:0.0016396371647715569 579:0.0 580:0.004009793512523174 581:8.824933902360499E-4 582:0.008115733042359352 583:0.019218197092413902 584:9.162179194390774E-4 585:0.0022965087555348873 586:0.003414089558646083 587:0.0049189114943146706 588:0.0 589:0.0013365978375077248 590:2.9416446341201663E-4 591:0.08729981631040573 592:0.1761203408241272 593:0.03275366127490997 594:0.0 595:0.0 596:0.0 597:0.0 598:0.0 599:0.0010161800310015678 600:0.18359442055225372 601:0.18791918456554413 602:0.010001668706536293 603:0.0 604:0.0 605:0.0 606:0.0 607:0.0 608:0.0024804919958114624 609:0.043048445135354996 610:0.024116763845086098 611:0.005011269822716713 612:0.0 613:0.01461617648601532 614:0.005948297679424286 615:0.001145046204328537 616:0.024494323879480362 617:0.01093416940420866 618:0.014465522952377796 619:0.004714464768767357 620:3.0540599254891276E-4 621:0.011202088557183743 622:0.010242268443107605 623:0.01784489117562771 624:0.0034351383801549673 625:0.15565019845962524 626:0.0981617420911789 627:0.2316272258758545 628:0.05991906300187111 629:0.010917887091636658 630:0.0 631:0.0 632:0.0 633:0.0 634:0.03808186203241348 635:0.28888949751853943 636:0.28888949751853943 637:0.0718853697180748 638:0.0033338896464556456 639:0.0 640:0.0 641:0.0 642:0.0 643:0.0 644:0.08265887200832367 645:0.20939092338085175 646:0.013776319101452827 647:0.004601004999130964 648:0.0 649:0.010427993722259998 650:0.0030881576240062714 651:0.0024769033771008253 652:0.004154980648308992 653:0.004260523244738579 654:0.03123537451028824 655:0.025181006640195847 656:0.012523684650659561 657:0.01224503479897976 658:0.0 659:0.00926447194069624 660:0.007430709898471832 661:0.050546806305646896 662:0.20162782073020935 663:0.22423407435417175 664:0.04676763713359833 665:0.0376877635717392 666:6.056804559193552E-4 667:0.0 668:0.0 669:0.0 670:0.01269395463168621 671:0.28888949751853943 672:0.28888949751853943 673:0.20680883526802063 674:0.018116889521479607 675:0.0 676:0.0 677:0.0 678:0.0 679:0.0 680:0.09633877128362656 681:0.2228851318359375 682:0.11653830111026764 683:0.0067411488853394985 684:0.0 685:0.004441816359758377 686:0.0 687:0.0 688:0.0 689:0.0 690:0.005094230640679598 691:0.012917626649141312 692:0.0113271689042449 693:0.01280916202813387 694:0.003998731262981892 695:0.015625301748514175 696:0.0 697:0.005247078370302916 698:0.03368154540657997 699:0.09956125915050507 700:0.0792640894651413 701:0.03433163836598396 702:0.004549859091639519 703:0.0010792480316013098 704:0.005208434071391821 705:0.0 706:0.01574123464524746 707:0.12102704495191574 708:0.15247568488121033 709:0.28322938084602356 710:0.05435067415237427 711:0.0 712:0.0 713:0.0 714:0.0 715:0.0 716:0.02580677717924118 717:0.1778404265642166 718:0.11240004748106003 719:0.014771201647818089 720:0.0 721:0.0 722:0.0 723:0.0063653429970145226 724:0.04762483760714531 725:0.11664967983961105 726:0.04944626986980438 727:0.01533594448119402 728:0.0 729:0.0 730:0.0 731:0.003410907229408622 732:0.001938651199452579 733:0.041691988706588745 734:0.2515624761581421 735:0.04102183133363724 736:0.008039595559239388 737:0.0 738:0.0 739:0.0 740:0.010232722386717796 741:0.007365529425442219 742:0.013527428731322289 743:0.04061447083950043 744:0.035597655922174454 745:0.03661297261714935 746:0.0017004560213536024 747:0.001004664460197091 748:0.0013461279449984431 749:0.0 750:6.729756132699549E-4 751:0.0013765605399385095 752:0.013920211233198643 753:0.017468160018324852 754:0.019743511453270912 755:0.00497129000723362 756:0.009187445975840092 757:0.0 758:0.0 759:0.01909603178501129 760:0.25643521547317505 761:0.2402215152978897 762:0.021468475461006165 763:0.0 764:0.0 765:0.0 766:0.0 767:0.02417721226811409 768:0.04064996540546417 769:0.3131425380706787 770:0.3131425380706787 771:0.06552603095769882 772:0.0 773:0.0 774:0.0 775:0.0 776:0.07829707115888596 777:0.12688933312892914 778:0.05295753479003906 779:0.11822175234556198 780:0.025441158562898636 781:0.04088202863931656 782:0.019785134121775627 783:0.00659148721024394 784:4.4870932470075786E-4 785:0.017296314239501953 786:0.0028910709079355 787:0.006294771563261747 788:0.017605716362595558 789:0.02017027698457241 790:0.05583891272544861 791:0.08099570125341415 792:0.03172343596816063 793:0.012085416354238987 794:0.041853900998830795 795:0.004805875010788441 796:0.3131425380706787 797:0.1502433717250824 798:0.0021079503931105137 799:0.0 800:0.0 801:0.0 802:0.006835575215518475 803:0.017867980524897575 804:0.039616797119379044 805:0.3131425380706787 806:0.24038735032081604 807:7.026501698419452E-4 808:0.0 809:0.008397321216762066 810:0.0017400206997990608 811:0.020506726577878 812:0.07090025395154953 813:0.09678876399993896 814:0.2193242907524109 815:0.2265838384628296 816:0.0 817:0.008481676690280437 818:0.03178700432181358 819:0.0074172248132526875 820:0.002587113529443741 821:0.05298401042819023 822:0.03016829490661621 823:0.05092782527208328 824:0.06598258763551712 825:0.0 826:0.012716565281152725 827:0.06527718156576157 828:0.009906865656375885 829:0.004028472118079662 830:0.024944890290498734 831:0.028198672458529472 832:0.15750248730182648 833:0.04179400950670242 834:0.008790015242993832 835:0.0 836:0.0 837:0.0 838:0.038088828325271606 839:0.006716773379594088 840:0.006183330435305834 841:0.14875257015228271 842:0.16020789742469788 843:0.02637004852294922 844:0.0 845:0.0027991069946438074 846:0.028882160782814026 847:0.10647958517074585 848:0.03695472702383995 849:0.018931787461042404 850:0.11722873151302338 851:0.06380041688680649 852:0.0 853:0.0 854:0.008397321216762066 855:0.011174071580171585 856:0.010603985749185085 857:0.008886676281690598 858:0.01404180470854044 859:0.05950462818145752 860:0.02188306488096714 861:0.0 862:2.059858525171876E-4 863:0.004085100721567869 864:0.0028426446951925755 865:0.0029474280308932066 866:0.011323167942464352 867:0.007540558464825153 868:0.0 869:0.004263654816895723 870:0.0 871:0.0 872:0.002699625678360462 873:0.0029477167408913374 874:0.01432508509606123 875:0.01967346854507923 876:0.010719481855630875 877:0.0 878:0.011138929054141045 879:0.0013626612490043044 880:0.004531489685177803 881:5.279285251162946E-4 882:0.005918568000197411 883:0.0039032180793583393 884:0.0014089829055592418 885:0.0 886:0.08196740597486496 887:0.10387664288282394 888:0.004087983630597591 889:0.013594469055533409 890:0.001583785517141223 891:0.0019728560000658035 892:0.0 893:0.0 894:0.004447529092431068 895:0.09234649688005447 896:0.10549160093069077 897:0.0 898:0.0 899:0.0 900:0.0 901:0.045076943933963776 902:0.05104914307594299 903:0.0025135197211056948 904:0.0 905:0.0 906:0.0 907:0.01688637211918831 908:0.01685619354248047 909:0.017522519454360008 910:0.06278476864099503 911:0.09816041588783264 912:0.0035731603857129812 913:0.0 914:0.0033218141179531813 915:0.013690871186554432 916:0.0404936745762825 917:0.09979281574487686 918:0.021146060898900032 919:0.0065620215609669685 920:4.696609394159168E-4 921:0.0 922:0.12058406323194504 923:0.2944253087043762 924:0.09473855048418045 925:0.06532797962427139 926:0.0374877005815506 927:0.005918568000197411 928:0.0 929:0.0 930:0.01334258820861578 931:0.1523064374923706 932:0.2944253087043762 933:0.03962308168411255 934:0.0 935:0.0 936:0.0 937:0.06904855370521545 938:0.014039114117622375 939:0.0 940:0.0 941:0.0 942:0.04037493094801903 943:0.10081347078084946 944:0.05617545172572136 945:0.08751650154590607 946:0.1103341355919838 947:0.030845480039715767 948:0.0 949:0.0 950:0.0099654421210289 951:0.07591965794563293 952:0.14597629010677338 953:0.24968822300434113 954:0.08535824716091156 955:0.0 956:0.0 957:0.01912692002952099 958:0.1815115362405777 959:0.2944253087043762 960:0.22708362340927124 961:0.17174245417118073 962:0.08117016404867172 963:0.0 964:0.0 965:0.0 966:0.007260788232088089 967:0.0952271893620491 968:0.2944253087043762 969:0.08409832417964935 970:0.0 971:0.0 972:0.0 973:0.005589758045971394 974:0.0 975:0.0 976:0.0 977:0.0 978:0.1265484094619751 979:0.10744914412498474 980:0.0817645713686943 981:0.030469108372926712 982:0.016769275069236755 983:0.0 984:0.0 985:0.0 986:0.0 987:0.05161783844232559 988:0.24178019165992737 989:0.11320477724075317 990:0.059466443955898285 991:0.0 992:0.003130199620500207 993:0.06580168753862381 994:0.14554958045482635 995:0.02576356567442417 996:0.06498758494853973 997:0.2625301480293274 998:0.03535237908363342 999:0.0 1000:0.0 1001:0.0010433999123051763 1002:0.046710073947906494 1003:0.1717115044593811 1004:0.07963022589683533 1005:0.003045008284971118 1006:0.0 1007:0.0 1008:0.0 1009:0.0 1010:0.0 1011:0.0 1012:0.0 1013:0.0 1014:0.0 1015:0.0 1016:0.0 1017:0.0 1018:0.0 1019:0.0 1020:0.0 1021:0.0 1022:0.0 1023:0.0 1024:0.0 1025:0.0 1026:0.0 1027:0.0 1028:0.0 1029:0.0 1030:0.0 1031:0.045822836458683014 1032:0.0 1033:0.0 1034:0.0 1035:0.0 1036:0.0 1037:0.0 1038:0.0 1039:0.0038990515749901533 1040:0.2065679132938385 1041:0.0 1042:0.0 1043:0.0 1044:0.0 1045:0.03784271329641342 1046:0.0 1047:0.0 1048:0.0 1049:0.0 1050:0.0 1051:0.0 1052:0.0 1053:0.03784271329641342 1054:0.11148008704185486 1055:0.0 1056:0.0 1057:0.0 1058:0.0 1059:0.0 1060:0.0 1061:0.0 1062:0.11148008704185486 1063:0.16846956312656403 1064:0.00705777108669281 1065:0.027421079576015472 1066:0.025917932391166687 1067:0.08586960285902023 1068:0.0 1069:0.0 1070:0.0 1071:0.08301512151956558 1072:0.031312886625528336 1073:0.02117331326007843 1074:0.08226323872804642 1075:0.10124122351408005 1076:0.2796005606651306 1077:0.0 1078:0.0 1079:0.0 1080:0.0028280734550207853 1081:0.1771927922964096 1082:0.0 1083:0.0 1084:0.0 1085:0.0 1086:0.0 1087:0.0 1088:0.0 1089:0.14091649651527405 1090:0.2796005606651306 1091:0.0 1092:0.0 1093:0.0 1094:0.0 1095:0.0 1096:0.0 1097:0.0 1098:0.2796005606651306 1099:0.2796005606651306 1100:0.02117331326007843 1101:0.08306360989809036 1102:0.011874673888087273 1103:0.011797983199357986 1104:0.0 1105:0.007830318994820118 1106:0.010745303705334663 1107:0.2796005606651306 1108:0.11765030771493912 1109:0.06351993978023529 1110:0.2491908222436905 1111:0.0635407567024231 1112:0.15940546989440918 1113:0.004522470757365227 1114:0.026737216860055923 1115:0.03223591297864914 1116:0.025237131863832474 1117:0.12507963180541992 1118:0.0 1119:0.0 1120:0.0 1121:0.0 1122:0.0 1123:0.0 1124:0.0 1125:0.04511513188481331 1126:0.2796005606651306 1127:0.0 1128:0.0 1129:0.0 1130:0.0 1131:0.0 1132:0.0 1133:0.0 1134:0.1813299059867859 1135:0.24000027775764465 1136:0.0 1137:2.6679091388359666E-4 1138:0.0010784546611830592 1139:0.011964276432991028 1140:0.011281733401119709 1141:0.02349095791578293 1142:0.03223591297864914 1143:0.2796005606651306 1144:0.025363299995660782 1145:0.0 1146:8.003728580661118E-4 1147:0.003235364332795143 1148:0.11860013753175735 1149:0.047577306628227234 1150:0.07155495136976242 1151:0.09670772403478622 1152:0.050203267484903336 1153:0.010618845000863075 1154:0.01440559234470129 1155:0.011117496527731419 1156:0.0 1157:0.0 1158:0.025140970945358276 1159:0.008146282285451889 1160:0.015451917424798012 1161:0.021997636184096336 1162:0.008040161803364754 1163:0.011581712402403355 1164:0.002212668303400278 1165:0.0 1166:0.019827166572213173 1167:0.1822599470615387 1168:0.11121456325054169 1169:0.007271719630807638 1170:0.0056785717606544495 1171:0.0 1172:0.002310721203684807 1173:0.007929147221148014 1174:0.004520908463746309 1175:0.06422750651836395 1176:0.09936940670013428 1177:0.05758480727672577 1178:0.0 1179:0.0 1180:0.0 1181:0.0069321636110544205 1182:0.007986949756741524 1183:0.012198157608509064 1184:0.018220484256744385 1185:0.005434069316834211 1186:0.008171348832547665 1187:5.68449788261205E-4 1188:0.003925931639969349 1189:0.005063115619122982 1190:0.05903298780322075 1191:0.07479911297559738 1192:0.06131475046277046 1193:0.05078032612800598 1194:0.008380324579775333 1195:0.03975270688533783 1196:0.1651722937822342 1197:0.04425356164574623 1198:0.015189346857368946 1199:0.04763782396912575 1200:0.07054038345813751 1201:0.28138139843940735 1202:0.28138139843940735 1203:0.13730761408805847 1204:0.14993244409561157 1205:0.04938347637653351 1206:0.00997398141771555 1207:0.049164947122335434 1208:0.0069321636110544205 1209:0.03332336246967316 1210:0.09650550037622452 1211:0.28138139843940735 1212:0.12360725551843643 1213:0.11618022620677948 1214:0.0033232879359275103 1215:0.049164947122335434 1216:0.016388315707445145 1217:0.020796488970518112 1218:0.046083658933639526 1219:0.05117843672633171 1220:0.006369530223309994 1221:0.02433384582400322 1222:0.04261249303817749 1223:0.0017053495394065976 1224:0.028166109696030617 1225:0.0 1226:0.15508194267749786 1227:0.1701950877904892 1228:0.21791940927505493 1229:0.02327374741435051 1230:0.019819777458906174 1231:0.030260207131505013 1232:0.04789334535598755 1233:0.0 1234:0.0 1235:0.1084975004196167 1236:0.2611836791038513 1237:0.28138139843940735 1238:0.2044459879398346 1239:0.006606592331081629 1240:0.03352804109454155 1241:0.01800793595612049 1242:0.0 1243:0.029753215610980988 1244:0.0 1245:0.08744682371616364 1246:0.21881099045276642 1247:0.23997776210308075 1248:6.926578935235739E-4 1249:0.09367387741804123 1250:0.012175949290394783 1251:0.0291299968957901 1252:0.037274815142154694 1253:0.010058261454105377 1254:0.019905226305127144 1255:0.11668373644351959 1256:0.018277041614055634 1257:0.016075177118182182 1258:0.011173219420015812 1259:0.0066182538866996765 1260:0.05133093520998955 1261:0.006192447617650032 1262:0.04766744375228882 1263:0.09029799699783325 1264:0.0680321604013443 1265:0.019040921702980995 1266:0.05945933610200882 1267:0.0 1268:0.0 1269:0.0 1270:0.0079344492405653 1271:0.060924239456653595 1272:0.09015477448701859 1273:0.1702014058828354 1274:0.07619833201169968 1275:0.019819777458906174 1276:0.0 1277:0.0 1278:0.0 1279:0.09538169205188751 1280:0.015749940648674965 1281:0.01666221395134926 1282:0.07376478612422943 1283:0.060729797929525375 1284:0.0 1285:0.007968602702021599 1286:0.0020801289938390255 1287:0.022022174671292305 1288:0.06053642928600311 1289:0.03017478436231613 1290:0.0 1291:0.034893330186605453 1292:0.02822582609951496 1293:0.0 1294:0.023905809968709946 1295:0.0062403869815170765 1296:0.024792369455099106 1297:0.02964054048061371 1298:0.009826719760894775 1299:0.0017997855320572853 1300:0.006526329088956118 1301:0.0019178043585270643 1302:0.009213966317474842 1303:0.005292241927236319 1304:0.0 1305:0.010864239186048508 1306:0.08643001317977905 1307:0.03452013432979584 1308:0.0010788795771077275 1309:0.01701906882226467 1310:0.052809372544288635 1311:0.05413675308227539 1312:0.014797968789935112 1313:0.0 1314:0.16584482789039612 1315:0.20409241318702698 1316:0.022189021110534668 1317:2.3155499366112053E-4 1318:0.05957072228193283 1319:0.2686135768890381 1320:0.2686135768890381 1321:0.0 1322:0.0 1323:0.19133660197257996 1324:0.12754690647125244 1325:0.03532249853014946 1326:0.0 1327:0.26471126079559326 1328:0.08941484242677689 1329:0.04810564965009689 1330:0.0 1331:0.0 1332:0.01807534135878086 1333:0.0021709175780415535 1334:0.02471812255680561 1335:0.048709820955991745 1336:0.028964919969439507 1337:0.007834075950086117 1338:0.019362181425094604 1339:0.0034385425969958305 1340:0.0 1341:0.0021709175780415535 1342:0.03724496439099312 1343:0.0806550532579422 1344:0.17811034619808197 1345:0.06875790655612946 1346:0.06742708384990692 1347:0.05331815406680107 1348:0.005490809679031372 1349:0.0 1350:0.03933060169219971 1351:0.2686135768890381 1352:0.059789661318063736 1353:0.038043588399887085 1354:0.040076445788145065 1355:0.1260308176279068 1356:0.10368454456329346 1357:0.044095560908317566 1358:0.0 1359:0.2686135768890381 1360:0.2686135768890381 1361:0.10596749186515808 1362:0.010251440107822418 1363:0.1804937869310379 1364:0.08302659541368484 1365:0.030999835580587387 1366:0.13894698023796082 1367:0.04430988058447838 1368:0.07090084999799728 1369:0.0010819651652127504 1370:0.006195479072630405 1371:0.01847458817064762 1372:0.051090918481349945 1373:0.036941226571798325 1374:0.05972263216972351 1375:0.007191402371972799 1376:0.004149316344410181 1377:0.0 1378:0.007212192285805941 1379:0.0011887837899848819 1380:0.06733396649360657 1381:0.08352267742156982 1382:0.2686135768890381 1383:0.1383679062128067 1384:0.0016744621098041534 1385:0.009892301633954048 1386:0.01587684266269207 1387:0.046178825199604034 1388:9.489480871707201E-4 1389:0.03252052143216133 1390:0.08542700111865997 1391:0.15026259422302246 1392:0.04545704647898674 1393:0.04701630026102066 1394:0.05040879547595978 1395:0.06430535018444061 1396:0.008180748671293259 1397:0.0 1398:0.03440714627504349 1399:0.044331084936857224 1400:0.07564976811408997 1401:0.10219105333089828 1402:0.08403654396533966 1403:0.1398402601480484 1404:0.005558272823691368 1405:0.019891589879989624 1406:0.0313873291015625 1407:0.010816133581101894 1408:0.027162538841366768 1409:0.0063999369740486145 1410:0.0036166866775602102 1411:7.22672208212316E-4 1412:0.0013831054093316197 1413:0.0 1414:0.007735035382211208 1415:0.05060848593711853 1416:0.06446225941181183 1417:0.06301387399435043 1418:0.09169803559780121 1419:0.010850060731172562 1420:0.0 1421:0.0032974339555948973 1422:0.002288672374561429 1423:0.010557231493294239 1424:0.00267054233700037 1425:0.06777403503656387 1426:0.02351219579577446 1427:0.041978925466537476 1428:0.01443218719214201 1429:0.01077259425073862 1430:0.01680293306708336 1431:0.006866017356514931 1432:0.0 1433:0.0 1434:0.011329381726682186 1435:0.004722073208540678 1436:0.07870547473430634 1437:0.06778852641582489 1438:0.006653360091149807 1439:0.0023035435006022453 1440:0.0 1441:0.0 1442:0.0 1443:0.0063653429970145226 1444:0.04762483760714531 1445:0.11664967983961105 1446:0.04944626986980438 1447:0.01533594448119402 1448:0.0 1449:0.0 1450:0.0 1451:0.003410907229408622 1452:0.001938651199452579 1453:0.041691988706588745 1454:0.2515624761581421 1455:0.04102183133363724 1456:0.008039595559239388 1457:0.0 1458:0.0 1459:0.0 1460:0.010232722386717796 1461:0.007365529425442219 1462:0.013527428731322289 1463:0.04061447083950043 1464:0.035597655922174454 1465:0.03661297261714935 1466:0.0017004560213536024 1467:0.001004664460197091 1468:0.0013461279449984431 1469:0.0 1470:6.729756132699549E-4 1471:0.0013765605399385095 1472:0.013920211233198643 1473:0.017468160018324852 1474:0.019743511453270912 1475:0.00497129000723362 1476:0.009187445975840092 1477:0.0 1478:0.0 1479:0.01909603178501129 1480:0.25643521547317505 1481:0.2402215152978897 1482:0.021468475461006165 1483:0.0 1484:0.0 1485:0.0 1486:0.0 1487:0.02417721226811409 1488:0.04064996540546417 1489:0.3131425380706787 1490:0.3131425380706787 1491:0.06552603095769882 1492:0.0 1493:0.0 1494:0.0 1495:0.0 1496:0.07829707115888596 1497:0.12688933312892914 1498:0.05295753479003906 1499:0.11822175234556198 1500:0.025441158562898636 1501:0.04088202863931656 1502:0.019785134121775627 1503:0.00659148721024394 1504:4.4870932470075786E-4 1505:0.017296314239501953 1506:0.0028910709079355 1507:0.006294771563261747 1508:0.017605716362595558 1509:0.02017027698457241 1510:0.05583891272544861 1511:0.08099570125341415 1512:0.03172343596816063 1513:0.012085416354238987 1514:0.041853900998830795 1515:0.004805875010788441 1516:0.3131425380706787 1517:0.1502433717250824 1518:0.0021079503931105137 1519:0.0 1520:0.0 1521:0.0 1522:0.006835575215518475 1523:0.017867980524897575 1524:0.039616797119379044 1525:0.3131425380706787 1526:0.24038735032081604 1527:7.026501698419452E-4 1528:0.0 1529:0.008397321216762066 1530:0.0017400206997990608 1531:0.020506726577878 1532:0.07090025395154953 1533:0.09678876399993896 1534:0.2193242907524109 1535:0.2265838384628296 1536:0.0 1537:0.008481676690280437 1538:0.03178700432181358 1539:0.0074172248132526875 1540:0.002587113529443741 1541:0.05298401042819023 1542:0.03016829490661621 1543:0.05092782527208328 1544:0.06598258763551712 1545:0.0 1546:0.012716565281152725 1547:0.06527718156576157 1548:0.009906865656375885 1549:0.004028472118079662 1550:0.024944890290498734 1551:0.028198672458529472 1552:0.15750248730182648 1553:0.04179400950670242 1554:0.008790015242993832 1555:0.0 1556:0.0 1557:0.0 1558:0.038088828325271606 1559:0.006716773379594088 1560:0.006183330435305834 1561:0.14875257015228271 1562:0.16020789742469788 1563:0.02637004852294922 1564:0.0 1565:0.0027991069946438074 1566:0.028882160782814026 1567:0.10647958517074585 1568:0.03695472702383995 1569:0.018931787461042404 1570:0.11722873151302338 1571:0.06380041688680649 1572:0.0 1573:0.0 1574:0.008397321216762066 1575:0.011174071580171585 1576:0.010603985749185085 1577:0.008886676281690598 1578:0.01404180470854044 1579:0.05950462818145752 1580:0.02188306488096714 1581:0.0 1582:2.059858525171876E-4 1583:0.004085100721567869 1584:0.0028426446951925755 1585:0.0 1586:0.0 1587:0.0 1588:0.03129523992538452 1589:0.010958034545183182 1590:0.01237433310598135 1591:0.010361332446336746 1592:0.009282530285418034 1593:3.727475996129215E-4 1594:0.0 1595:0.0040093399584293365 1596:0.022577499970793724 1597:0.04417848214507103 1598:0.05755551904439926 1599:0.004124777391552925 1600:0.056893762201070786 1601:0.021371185779571533 1602:0.0 1603:0.0 1604:0.0013364467304199934 1605:0.019184721633791924 1606:0.0580720491707325 1607:0.09334038943052292 1608:0.011085697449743748 1609:0.031170956790447235 1610:0.018523944541811943 1611:0.0 1612:0.0 1613:0.01388545986264944 1614:0.012380399741232395 1615:0.015963194891810417 1616:0.04114805907011032 1617:0.033257097005844116 1618:0.012167089618742466 1619:0.0 1620:0.0 1621:0.0 1622:0.0 1623:0.009062323719263077 1624:0.012826334685087204 1625:0.011327994056046009 1626:0.0460023432970047 1627:0.07352486252784729 1628:0.05005272477865219 1629:0.0 1630:0.0 1631:0.0 1632:0.020132966339588165 1633:0.07193318754434586 1634:0.04563673585653305 1635:0.07479241490364075 1636:0.262779176235199 1637:0.15213638544082642 1638:0.0 1639:0.0 1640:0.01048729382455349 1641:0.0034814439713954926 1642:0.11838960647583008 1643:0.15671105682849884 1644:0.262779176235199 1645:0.18248233199119568 1646:0.06913735717535019 1647:0.0 1648:4.590220924001187E-4 1649:0.07311825454235077 1650:0.0546831414103508 1651:0.02277068793773651 1652:0.04832415655255318 1653:0.07233620434999466 1654:0.036501266062259674 1655:0.0 1656:0.004448946099728346 1657:0.006808759644627571 1658:0.004127290099859238 1659:0.09986118972301483 1660:0.05030729994177818 1661:0.015956474468111992 1662:0.002959783188998699 1663:0.01441247295588255 1664:0.010165232233703136 1665:0.002415415132418275 1666:0.0 1667:0.0978388786315918 1668:0.262779176235199 1669:0.22897490859031677 1670:0.08186472952365875 1671:0.020806027576327324 1672:0.07150338590145111 1673:0.029340945184230804 1674:0.0 1675:0.008046029135584831 1676:0.07475608587265015 1677:0.262779176235199 1678:0.2607269883155823 1679:0.17131929099559784 1680:0.2251451313495636 1681:0.029656486585736275 1682:0.004521840717643499 1683:0.0 1684:0.025515159592032433 1685:0.042225755751132965 1686:0.10299352556467056 1687:0.03606323152780533 1688:0.06510825455188751 1689:0.0595109649002552 1690:0.0 1691:0.0 1692:0.0133468396961689 1693:0.0022695865482091904 1694:0.021075673401355743 1695:0.10526633262634277 1696:0.025042274966835976 1697:0.0 1698:0.0 1699:0.0 1700:0.0 1701:8.051383192650974E-4 1702:0.0 1703:0.06479550153017044 1704:0.262779176235199 1705:0.09879077225923538 1706:0.006317970342934132 1707:0.0 1708:0.0 1709:0.0 1710:0.0 1711:0.05513755977153778 1712:0.19190718233585358 1713:0.262779176235199 1714:0.10090290009975433 1715:0.01895391009747982 1716:0.0 1717:0.0 1718:0.0 1719:0.0 1720:0.10116110742092133 1721:0.210489422082901 1722:0.13026751577854156 1723:0.00817845668643713 1724:0.006230256520211697 1725:0.0017562048742547631 1726:0.0 1727:0.0 1728:0.0 
1.1273679288478728 1:0.0014140213606879115 2:0.0020439301151782274 3:0.0 4:0.0 5:0.0013445107033476233 6:0.0 7:5.693548591807485E-4 8:1.90268867299892E-4 9:4.715087707154453E-4 10:0.010587187483906746 11:0.001871481304988265 12:0.0 13:0.009236311540007591 14:0.021280361339449883 15:0.0 16:1.897849579108879E-4 17:8.465968421660364E-4 18:0.011410804465413094 19:0.0034179463982582092 20:0.0 21:0.015619172714650631 22:0.048825304955244064 23:0.06255786865949631 24:0.0 25:0.0 26:2.610579249449074E-4 27:0.004340736195445061 28:0.0016114054014906287 29:0.002613284857943654 30:0.044454388320446014 31:0.027259865775704384 32:0.03821893408894539 33:0.0 34:0.0 35:0.0 36:0.0016114054014906287 37:0.004539787769317627 38:0.001871481304988265 39:0.0 40:0.01010950468480587 41:0.0015778099186718464 42:0.0026699495501816273 43:0.0090112229809165 44:0.0034791359212249517 45:0.002595034893602133 46:0.03146729990839958 47:0.004194341134279966 48:0.008223003707826138 49:0.07556293904781342 50:0.03336793929338455 51:0.0194705780595541 52:0.003003740916028619 53:0.001420769956894219 54:0.00444070715457201 55:0.008821479976177216 56:0.0 57:0.036135729402303696 58:0.25266018509864807 59:0.16356877982616425 60:0.0061935316771268845 61:0.0 62:8.701931074028835E-5 63:0.0016592807369306684 64:5.371351144276559E-4 65:0.03983894735574722 66:0.25538721680641174 67:0.17583468556404114 68:0.20692932605743408 69:0.0 70:0.0 71:0.0 72:5.371351144276559E-4 73:0.002678969642147422 74:0.0035259551368653774 75:0.010551001876592636 76:0.00954501237720251 77:0.007411052007228136 78:8.899832027964294E-4 79:0.006486655678600073 80:0.008724987506866455 81:0.002678969642147422 82:0.13038238883018494 83:0.11258471012115479 84:0.07762397080659866 85:0.057696323841810226 86:0.05164487287402153 87:0.006490192376077175 88:0.0021622187923640013 89:0.0029083292465656996 90:0.009651129133999348 91:0.09238294512033463 92:0.27801892161369324 93:0.08304008096456528 94:0.2516668140888214 95:0.12775059044361115 96:0.0020645104814320803 97:0.0 98:0.015074235387146473 99:0.04263639077544212 100:0.006740787532180548 101:0.05903755500912666 102:0.06778685003519058 103:0.27801892161369324 104:0.27801892161369324 105:0.0 106:0.0 107:0.005024744663387537 108:0.013159675523638725 109:0.003297543851658702 110:0.0014808481791988015 111:0.0044312626123428345 112:0.00883642490953207 113:0.029554303735494614 114:0.0 115:0.0 116:0.0 117:0.003297543851658702 118:0.060853298753499985 119:0.1270214170217514 120:0.1851925104856491 121:0.09611678868532181 122:0.08866291493177414 123:0.0 124:0.0 125:0.0 126:0.003694496350362897 127:0.14154782891273499 128:0.27801892161369324 129:0.14434897899627686 130:0.057253893464803696 131:0.010782592929899693 132:0.0 133:0.0 134:0.04522270709276199 135:0.16755345463752747 136:0.05410166457295418 137:0.09285824000835419 138:0.06953956186771393 139:0.20988920331001282 140:0.27801892161369324 141:0.0 142:0.0 143:0.015074235387146473 144:0.0555003322660923 145:0.012032661586999893 146:0.012691725976765156 147:0.004987180233001709 148:0.0 149:0.002945823362097144 150:0.0 151:0.0 152:0.0 153:0.003044752636924386 154:0.017802301794290543 155:0.017608195543289185 156:0.010160463862121105 157:0.00450849486514926 158:0.014236493036150932 159:0.0040489621460437775 160:0.004141675308346748 161:0.0 162:0.005608425475656986 163:0.0018694751197472215 164:0.0 165:7.347072823904455E-4 166:0.05183127522468567 167:0.11857973039150238 168:0.012146885506808758 169:0.01242502499371767 170:0.0 171:0.0018694751197472215 172:0.0 173:0.0 174:0.0 175:0.06523759663105011 176:0.13317376375198364 177:0.0 178:0.0 179:0.0 180:0.0 181:0.05064770579338074 182:0.03885608911514282 183:0.0016623936826363206 184:0.0 185:0.0 186:0.0 187:0.011680384166538715 188:0.01944783702492714 189:0.017662370577454567 190:0.08616119623184204 191:0.04898551106452942 192:0.0033868211321532726 193:0.0015028316993266344 194:0.015411215834319592 195:0.013369829393923283 196:0.023017654195427895 197:0.10805696249008179 198:0.020139632746577263 199:0.005608425475656986 200:0.0 201:2.4490244686603546E-4 202:0.17314095795154572 203:0.2819887697696686 204:0.04010948911309242 205:0.021104827523231506 206:0.03541014716029167 207:0.005608425475656986 208:0.0 209:0.0 210:0.0 211:0.17118415236473083 212:0.2819887697696686 213:0.006512817926704884 214:0.0 215:0.0 216:0.0 217:0.06473004072904587 218:0.01070584636181593 219:0.0 220:0.0 221:0.0 222:0.043974556028842926 223:0.0832744687795639 224:0.04025866463780403 225:0.09269913285970688 226:0.1330459713935852 227:0.013765024021267891 228:0.0 229:0.0 230:0.005137071944773197 231:0.03833524137735367 232:0.24519793689250946 233:0.15557560324668884 234:0.08549918979406357 235:0.0 236:0.0 237:0.009608298540115356 238:0.22403627634048462 239:0.2819887697696686 240:0.1150057315826416 241:0.25206634402275085 242:0.05362839251756668 243:0.0 244:0.0 245:0.0027375551871955395 246:0.005836642812937498 247:0.20437085628509521 248:0.2819887697696686 249:0.019538454711437225 250:0.003182047512382269 251:0.001063384348526597 252:0.0 253:0.012571976520121098 254:0.0 255:0.0 256:0.0 257:0.0 258:0.10506506264209747 259:0.11821331083774567 260:0.06985512375831604 261:0.039273206144571304 262:0.01997733861207962 263:0.0 264:0.0 265:0.0 266:0.0 267:0.015540091320872307 268:0.2819887697696686 269:0.09348389506340027 270:0.05155668035149574 271:0.0 272:0.0 273:0.05413711443543434 274:0.13777907192707062 275:0.0465216264128685 276:0.04662026837468147 277:0.2478952258825302 278:0.03770761936903 279:0.0 280:0.0 281:0.00821266695857048 282:0.047681741416454315 283:0.11810370534658432 284:0.11459073424339294 285:0.0 286:0.0010606825817376375 287:3.544614592101425E-4 288:0.0 289:0.006984232924878597 290:0.02101176418364048 291:0.02376808226108551 292:0.004107808228582144 293:0.0 294:0.0 295:0.0011252741096541286 296:0.003675592364743352 297:0.003797304816544056 298:0.027263563126325607 299:0.18222559988498688 300:0.10981300473213196 301:0.01488714199513197 302:0.0 303:0.0 304:3.750913601834327E-4 305:0.0012251974549144506 306:0.008641020394861698 307:0.005438883323222399 308:0.20000217854976654 309:0.21652249991893768 310:0.1050497442483902 311:0.0 312:0.0 313:0.0 314:0.0 315:0.002284114481881261 316:0.0 317:0.0356692299246788 318:0.058495040982961655 319:0.07365136593580246 320:0.003759718034416437 321:0.0 322:0.0 323:0.0 324:0.0 325:0.022496074438095093 326:0.03448786586523056 327:0.16316859424114227 328:0.061910126358270645 329:0.011193802580237389 330:0.0 331:0.0 332:0.0 333:0.01659122295677662 334:0.017580373212695122 335:0.2960148751735687 336:0.2960148751735687 337:0.11409568786621094 338:0.0037312672939151525 339:0.0 340:0.0 341:0.0 342:0.0 343:0.05610378086566925 344:0.2960148751735687 345:0.2960148751735687 346:0.045701202005147934 347:0.0 348:0.0 349:0.0 350:0.0 351:0.0 352:0.031752120703458786 353:0.0835694894194603 354:0.09015333652496338 355:0.03795728087425232 356:0.001253239344805479 357:0.0 358:0.0 359:0.0 360:0.0 361:0.01966988481581211 362:0.007108135614544153 363:0.23274536430835724 364:0.09580234438180923 365:0.03357186168432236 366:0.0 367:0.0 368:0.0 369:0.01966988481581211 370:0.0 371:0.043415650725364685 372:0.2960148751735687 373:0.2960148751735687 374:0.20388925075531006 375:0.0 376:0.0 377:0.0 378:0.0 379:0.023241784423589706 380:0.10970968753099442 381:0.17925871908664703 382:0.09899284690618515 383:0.13576868176460266 384:0.0 385:0.0 386:0.0 387:0.0 388:0.02420562505722046 389:0.04477784037590027 390:0.023380490019917488 391:0.018263492733240128 392:0.007076466456055641 393:0.0026448422577232122 394:0.0 395:0.0 396:0.0 397:0.01025435235351324 398:0.0 399:0.024633318185806274 400:0.0266274381428957 401:0.0617126040160656 402:0.0 403:0.0 404:0.0 405:0.01025435235351324 406:0.0 407:0.0018543782643973827 408:0.08107464760541916 409:0.13467605412006378 410:0.13200615346431732 411:0.0 412:0.0 413:0.0 414:0.0 415:0.006515377201139927 416:0.007511438801884651 417:0.042052172124385834 418:0.0697818249464035 419:0.08606813848018646 420:0.0 421:0.0 422:0.0 423:0.0 424:0.002171792322769761 425:0.0014499243116006255 426:0.005075233988463879 427:0.00653616851195693 428:0.011145766824483871 429:0.007934526540338993 430:0.0 431:0.0 432:0.0 433:0.03239528834819794 434:0.012023177929222584 435:0.005407688673585653 436:0.0 437:0.014574023894965649 438:0.030434323474764824 439:0.007627294864505529 440:0.007255651988089085 441:0.010231544263660908 442:0.01079842820763588 443:0.0019023361383005977 444:0.0 445:0.0 446:0.05131543427705765 447:0.1861410140991211 448:0.0594324991106987 449:0.013366776518523693 450:0.0034105146769434214 451:0.001242063008248806 452:0.006050598341971636 453:0.004658839665353298 454:0.01692122407257557 455:0.022157086059451103 456:0.10953795909881592 457:0.021344944834709167 458:0.0011783712543547153 459:8.1788026727736E-4 460:4.1402093484066427E-4 461:0.002167323837056756 462:0.01782783307135105 463:0.010735136456787586 464:0.005257804412394762 465:0.017165472730994225 466:0.002827773801982403 467:0.004480108618736267 468:0.0024536405690014362 469:0.05786813050508499 470:0.02085084281861782 471:0.02389567904174328 472:0.018082790076732635 473:0.05435548350214958 474:0.06799137592315674 475:0.07598593086004257 476:0.03535300865769386 477:0.00521807698532939 478:0.00359947606921196 479:6.341120461001992E-4 480:0.0 481:0.12535813450813293 482:0.27713921666145325 483:0.27713921666145325 484:0.1906868815422058 485:0.05704871937632561 486:0.0 487:0.013013615272939205 488:0.010187387466430664 489:0.013976518996059895 490:0.10061946511268616 491:0.21392469108104706 492:0.249195396900177 493:0.04612196236848831 494:0.07407417893409729 495:0.007856006734073162 496:0.025287223979830742 497:0.03239164873957634 498:0.0496567003428936 499:0.019453352317214012 500:0.0171364676207304 501:0.024237673729658127 502:0.010634668171405792 503:0.027526380494236946 504:0.023568017408251762 505:0.015689900144934654 506:0.024848513305187225 507:0.21232745051383972 508:0.1320638209581375 509:0.05611826479434967 510:0.009028255939483643 511:0.06935499608516693 512:0.06808560341596603 513:0.0017393588786944747 514:0.0 515:0.008282838389277458 516:0.23163892328739166 517:0.27713921666145325 518:0.27713921666145325 519:0.09658849984407425 520:0.039368268102407455 521:0.03535300865769386 522:0.0 523:0.019752835854887962 524:0.0300543662160635 525:0.019298123195767403 526:0.22004404664039612 527:0.25693175196647644 528:0.14462414383888245 529:0.005501325707882643 530:0.029080333188176155 531:0.004280006512999535 532:0.025438819080591202 533:0.019532950595021248 534:0.01743411459028721 535:0.07085171341896057 536:0.04421916604042053 537:0.018986143171787262 538:0.0018337751971557736 539:0.009693444706499577 540:0.033963292837142944 541:0.004460012540221214 542:0.009670283645391464 543:0.08025538176298141 544:0.1273096203804016 545:0.0445505827665329 546:0.0 547:0.0029226476326584816 548:0.0024303223472088575 549:0.0 550:0.0 551:0.002760946052148938 552:0.09377854317426682 553:0.27713921666145325 554:0.06376016139984131 555:0.00980277732014656 556:0.0 557:0.0 558:0.0 559:0.0064737857319414616 560:0.007189646828919649 561:0.006432707421481609 562:0.12215607613325119 563:0.031276702880859375 564:0.029408330097794533 565:0.01004993636161089 566:0.013166824355721474 567:0.004984014201909304 568:0.024034596979618073 569:0.002396548865363002 570:0.020162666216492653 571:0.028478553518652916 572:0.007903356105089188 573:0.0 574:0.0033499791752547026 575:0.004388941451907158 576:0.03489525616168976 577:0.0021374826319515705 578:0.0 579:3.944376949220896E-4 580:8.068158058449626E-4 581:0.0021206513047218323 582:0.015477900393307209 583:0.023614652454853058 584:5.451012984849513E-4 585:0.0021374826319515705 586:0.0 587:0.0 588:1.3147923164069653E-4 589:2.6893860194832087E-4 590:0.0013892136048525572 591:0.12181858718395233 592:0.1847469061613083 593:0.021261440590023994 594:0.0 595:0.0 596:0.0 597:1.3656118244398385E-4 598:7.161972462199628E-4 599:0.0030873259529471397 600:0.09524405002593994 601:0.18971826136112213 602:0.025426596403121948 603:0.0 604:0.0 605:0.0 606:4.096835618838668E-4 607:0.0037211982998996973 608:0.0010104273678734899 609:0.017628295347094536 610:0.025648774579167366 611:0.004448678344488144 612:0.0 613:0.00638069910928607 614:0.0 615:0.011599293909966946 616:0.013240208849310875 617:0.011444824747741222 618:0.009029335342347622 619:0.013282130472362041 620:1.8170042312704027E-4 621:0.00638069910928607 622:0.0 623:0.0 624:0.031673453748226166 625:0.04171483963727951 626:0.06933457404375076 627:0.13624927401542664 628:0.295247882604599 629:0.06887073814868927 630:0.0 631:0.0 632:0.0 633:0.009269007481634617 634:0.008004392497241497 635:0.16445086896419525 636:0.295247882604599 637:0.295247882604599 638:0.07942886650562286 639:0.0 640:0.0 641:0.0 642:0.0 643:0.0033653194550424814 644:0.0469619520008564 645:0.19552645087242126 646:0.05574486404657364 647:0.006187585182487965 648:0.0 649:0.011237011291086674 650:0.0 651:0.010254621505737305 652:0.014986789785325527 653:0.008128096349537373 654:0.01321368757635355 655:0.016077695414423943 656:0.0019907935056835413 657:0.011237011291086674 658:0.0 659:0.0 660:0.0925576388835907 661:0.09879051148891449 662:0.18811413645744324 663:0.10619485378265381 664:0.06477663666009903 665:0.010689391754567623 666:0.0 667:0.0 668:0.0 669:0.027807023376226425 670:0.024013182148337364 671:0.295247882604599 672:0.295247882604599 673:0.035652026534080505 674:0.0027739652432501316 675:0.0 676:0.0 677:0.0 678:0.0 679:0.0011217731516808271 680:0.18345290422439575 681:0.24096867442131042 682:0.04127400368452072 683:0.0013320825528353453 684:0.0 685:0.003193114884197712 686:0.0 687:7.147952564992011E-4 688:0.001462101936340332 689:0.0 690:0.007810158189386129 691:0.020392676815390587 692:0.0068545108661055565 693:0.003193114884197712 694:0.0 695:0.0 696:0.002144385827705264 697:0.004386306274682283 698:0.09519350528717041 699:0.054672032594680786 700:0.08059278875589371 701:0.025267343968153 702:0.0 703:0.0 704:0.0 705:0.0 706:0.0 707:0.18309690058231354 708:0.295247882604599 709:0.11961448937654495 710:0.0051728226244449615 711:0.0 712:0.0 713:0.0 714:0.0 715:0.0 716:0.02365211769938469 717:0.15014897286891937 718:0.10559138655662537 719:0.0039962478913366795 720:0.0 721:0.0 722:0.0 723:0.0 724:0.02594497986137867 725:0.05514248460531235 726:0.04298986867070198 727:0.058202970772981644 728:0.023505274206399918 729:0.010674526914954185 730:3.676888009067625E-4 731:0.0017744606593623757 732:4.724186728708446E-4 733:0.07213807106018066 734:0.1390879899263382 735:0.10688503086566925 736:0.03793985769152641 737:0.00360507657751441 738:2.3199731367640197E-4 739:0.002734910463914275 740:0.005323382094502449 741:0.00373631133697927 742:0.020341457799077034 743:0.02641291171312332 744:0.028699586167931557 745:0.06526947021484375 746:4.7019956400617957E-4 747:5.162188899703324E-4 748:0.004895532038062811 749:0.0 750:0.001192946103401482 751:2.2186183196026832E-4 752:0.006005633622407913 753:0.02668270282447338 754:0.00891667790710926 755:0.010245501063764095 756:0.0016262894496321678 757:0.0021314695477485657 758:0.0017408007988706231 759:0.11262265592813492 760:0.20106574892997742 761:0.17151972651481628 762:0.049618810415267944 763:0.01940098963677883 764:0.0043867481872439384 765:0.007295253220945597 766:0.004528035409748554 767:0.03744233772158623 768:0.05976902320981026 769:0.2934388816356659 770:0.2934388816356659 771:0.21374885737895966 772:0.01078091375529766 773:5.2244395192246884E-5 774:0.0 775:0.04227476567029953 776:0.11232700198888779 777:0.040006157010793686 778:0.03622276708483696 779:0.1358201503753662 780:0.06097568944096565 781:0.028535503894090652 782:0.009366965852677822 783:0.025942040607333183 784:0.019646892324090004 785:0.0 786:0.0 787:0.0 788:0.02127334475517273 789:0.05353957787156105 790:0.04242479056119919 791:0.04296271130442619 792:0.02015138603746891 793:0.010733199305832386 794:0.02606116235256195 795:0.06107798218727112 796:0.2934388816356659 797:0.19650675356388092 798:0.0 799:0.0 800:0.0 801:0.011907225474715233 802:0.0046852813102304935 803:0.01070631854236126 804:0.14185738563537598 805:0.2934388816356659 806:0.2934388816356659 807:0.03860028460621834 808:0.0 809:0.0 810:7.938972557894886E-4 811:0.03370273485779762 812:0.03211895748972893 813:0.14406634867191315 814:0.19322742521762848 815:0.1734539270401001 816:0.09951448440551758 817:0.0023433202877640724 818:0.0030700773932039738 819:0.01378271821886301 820:0.036798980087041855 821:0.0 822:0.020381787791848183 823:0.08098835498094559 824:0.02976994775235653 825:0.018125679343938828 826:0.013280524872243404 827:0.03910612314939499 828:0.05833803489804268 829:0.01301637478172779 830:0.026832766830921173 831:0.027507536113262177 832:0.1352715790271759 833:0.08689932525157928 834:0.0013363442849367857 835:0.0 836:0.0 837:0.0 838:0.010630875825881958 839:0.010550066828727722 840:0.040106143802404404 841:0.22352968156337738 842:0.1610276848077774 843:0.03409282863140106 844:0.004967085551470518 845:0.0 846:0.0023816917091608047 847:0.031892623752355576 848:0.03165019676089287 849:0.026337282732129097 850:0.1717192530632019 851:0.025140447542071342 852:0.020784825086593628 853:0.0016556952614337206 854:0.0 855:0.007145074661821127 856:0.00554210739210248 857:0.0 858:0.026337837800383568 859:0.0806712806224823 860:0.006666872184723616 861:0.0 862:0.0014835281763225794 863:0.002190862549468875 864:0.00794269796460867 865:0.012032661586999893 866:0.012691725976765156 867:0.004987180233001709 868:0.0 869:0.002945823362097144 870:0.0 871:0.0 872:0.0 873:0.003044752636924386 874:0.017802301794290543 875:0.017608195543289185 876:0.010160463862121105 877:0.00450849486514926 878:0.014236493036150932 879:0.0040489621460437775 880:0.004141675308346748 881:0.0 882:0.005608425475656986 883:0.0018694751197472215 884:0.0 885:7.347072823904455E-4 886:0.05183127522468567 887:0.11857973039150238 888:0.012146885506808758 889:0.01242502499371767 890:0.0 891:0.0018694751197472215 892:0.0 893:0.0 894:0.0 895:0.06523759663105011 896:0.13317376375198364 897:0.0 898:0.0 899:0.0 900:0.0 901:0.05064770579338074 902:0.03885608911514282 903:0.0016623936826363206 904:0.0 905:0.0 906:0.0 907:0.011680384166538715 908:0.01944783702492714 909:0.017662370577454567 910:0.08616119623184204 911:0.04898551106452942 912:0.0033868211321532726 913:0.0015028316993266344 914:0.015411215834319592 915:0.013369829393923283 916:0.023017654195427895 917:0.10805696249008179 918:0.020139632746577263 919:0.005608425475656986 920:0.0 921:2.4490244686603546E-4 922:0.17314095795154572 923:0.2819887697696686 924:0.04010948911309242 925:0.021104827523231506 926:0.03541014716029167 927:0.005608425475656986 928:0.0 929:0.0 930:0.0 931:0.17118415236473083 932:0.2819887697696686 933:0.006512817926704884 934:0.0 935:0.0 936:0.0 937:0.06473004072904587 938:0.01070584636181593 939:0.0 940:0.0 941:0.0 942:0.043974556028842926 943:0.0832744687795639 944:0.04025866463780403 945:0.09269913285970688 946:0.1330459713935852 947:0.013765024021267891 948:0.0 949:0.0 950:0.005137071944773197 951:0.03833524137735367 952:0.24519793689250946 953:0.15557560324668884 954:0.08549918979406357 955:0.0 956:0.0 957:0.009608298540115356 958:0.22403627634048462 959:0.2819887697696686 960:0.1150057315826416 961:0.25206634402275085 962:0.05362839251756668 963:0.0 964:0.0 965:0.0027375551871955395 966:0.005836642812937498 967:0.20437085628509521 968:0.2819887697696686 969:0.019538454711437225 970:0.003182047512382269 971:0.001063384348526597 972:0.0 973:0.012571976520121098 974:0.0 975:0.0 976:0.0 977:0.0 978:0.10506506264209747 979:0.11821331083774567 980:0.06985512375831604 981:0.039273206144571304 982:0.01997733861207962 983:0.0 984:0.0 985:0.0 986:0.0 987:0.015540091320872307 988:0.2819887697696686 989:0.09348389506340027 990:0.05155668035149574 991:0.0 992:0.0 993:0.05413711443543434 994:0.13777907192707062 995:0.0465216264128685 996:0.04662026837468147 997:0.2478952258825302 998:0.03770761936903 999:0.0 1000:0.0 1001:0.00821266695857048 1002:0.047681741416454315 1003:0.11810370534658432 1004:0.11459073424339294 1005:0.0 1006:0.0010606825817376375 1007:3.544614592101425E-4 1008:0.0 1009:0.0 1010:0.0 1011:0.0 1012:0.0 1013:0.0 1014:0.0 1015:0.0 1016:0.0 1017:0.0 1018:0.0 1019:0.0 1020:0.0 1021:0.0 1022:0.0 1023:0.0 1024:0.0 1025:0.0 1026:0.0 1027:0.0 1028:0.0 1029:0.0 1030:0.0 1031:0.046153243631124496 1032:0.0 1033:0.0 1034:0.0 1035:0.0 1036:0.0 1037:0.0 1038:0.0 1039:0.0032253123354166746 1040:0.2077280431985855 1041:0.0 1042:0.0 1043:0.0 1044:0.0 1045:0.037844642996788025 1046:0.0 1047:0.0 1048:0.0 1049:0.0 1050:0.0 1051:0.0 1052:0.0 1053:0.037844642996788025 1054:0.11032503843307495 1055:0.0 1056:0.0 1057:0.0 1058:0.0 1059:0.0 1060:0.0 1061:0.0 1062:0.11032503843307495 1063:0.16677744686603546 1064:0.007615139242261648 1065:0.02663503773510456 1066:0.02488226257264614 1067:0.08806824684143066 1068:0.0 1069:0.0 1070:0.0 1071:0.08472593128681183 1072:0.03083590604364872 1073:0.022845415398478508 1074:0.07990510761737823 1075:0.09589330852031708 1076:0.2794926166534424 1077:0.0 1078:0.0 1079:0.0 1080:0.0034853974357247353 1081:0.16763143241405487 1082:0.0 1083:0.0 1084:0.0 1085:0.0 1086:0.0 1087:0.0 1088:0.0 1089:0.15044784545898438 1090:0.2794926166534424 1091:0.0 1092:0.0 1093:0.0 1094:0.0 1095:0.0 1096:0.0 1097:0.0 1098:0.2794926166534424 1099:0.2794926166534424 1100:0.022845415398478508 1101:0.08295638859272003 1102:0.009702702984213829 1103:0.012658958323299885 1104:0.0 1105:0.008016610518097878 1106:0.010600726120173931 1107:0.2794926166534424 1108:0.11587454378604889 1109:0.06853624433279037 1110:0.2488691657781601 1111:0.050735410302877426 1112:0.16903804242610931 1113:0.006651026662439108 1114:0.026650208979845047 1115:0.03180218115448952 1116:0.026016896590590477 1117:0.12306960672140121 1118:0.0 1119:0.0 1120:0.0 1121:0.0 1122:0.0 1123:0.0 1124:0.0 1125:0.047056764364242554 1126:0.2794926166534424 1127:0.0 1128:0.0 1129:0.0 1130:0.0 1131:0.0 1132:0.0 1133:0.0 1134:0.17654873430728912 1135:0.24715986847877502 1136:0.0 1137:0.001017092727124691 1138:4.6953881974332035E-4 1139:0.011323395185172558 1140:0.011794719845056534 1141:0.024049831554293633 1142:0.03180218115448952 1143:0.2794926166534424 1144:0.02606434002518654 1145:0.0 1146:0.0030512786470353603 1147:0.0014086164301261306 1148:0.11303067952394485 1149:0.05222390964627266 1150:0.07301628589630127 1151:0.09540653973817825 1152:0.04868372902274132 1153:0.03239528834819794 1154:0.012023177929222584 1155:0.005407688673585653 1156:0.0 1157:0.014574023894965649 1158:0.030434323474764824 1159:0.007627294864505529 1160:0.007255651988089085 1161:0.010231544263660908 1162:0.01079842820763588 1163:0.0019023361383005977 1164:0.0 1165:0.0 1166:0.05131543427705765 1167:0.1861410140991211 1168:0.0594324991106987 1169:0.013366776518523693 1170:0.0034105146769434214 1171:0.001242063008248806 1172:0.006050598341971636 1173:0.004658839665353298 1174:0.01692122407257557 1175:0.022157086059451103 1176:0.10953795909881592 1177:0.021344944834709167 1178:0.0011783712543547153 1179:8.1788026727736E-4 1180:4.1402093484066427E-4 1181:0.002167323837056756 1182:0.01782783307135105 1183:0.010735136456787586 1184:0.005257804412394762 1185:0.017165472730994225 1186:0.002827773801982403 1187:0.004480108618736267 1188:0.0024536405690014362 1189:0.05786813050508499 1190:0.02085084281861782 1191:0.02389567904174328 1192:0.018082790076732635 1193:0.05435548350214958 1194:0.06799137592315674 1195:0.07598593086004257 1196:0.03535300865769386 1197:0.00521807698532939 1198:0.00359947606921196 1199:6.341120461001992E-4 1200:0.0 1201:0.12535813450813293 1202:0.27713921666145325 1203:0.27713921666145325 1204:0.1906868815422058 1205:0.05704871937632561 1206:0.0 1207:0.013013615272939205 1208:0.010187387466430664 1209:0.013976518996059895 1210:0.10061946511268616 1211:0.21392469108104706 1212:0.249195396900177 1213:0.04612196236848831 1214:0.07407417893409729 1215:0.007856006734073162 1216:0.025287223979830742 1217:0.03239164873957634 1218:0.0496567003428936 1219:0.019453352317214012 1220:0.0171364676207304 1221:0.024237673729658127 1222:0.010634668171405792 1223:0.027526380494236946 1224:0.023568017408251762 1225:0.015689900144934654 1226:0.024848513305187225 1227:0.21232745051383972 1228:0.1320638209581375 1229:0.05611826479434967 1230:0.009028255939483643 1231:0.06935499608516693 1232:0.06808560341596603 1233:0.0017393588786944747 1234:0.0 1235:0.008282838389277458 1236:0.23163892328739166 1237:0.27713921666145325 1238:0.27713921666145325 1239:0.09658849984407425 1240:0.039368268102407455 1241:0.03535300865769386 1242:0.0 1243:0.019752835854887962 1244:0.0300543662160635 1245:0.019298123195767403 1246:0.22004404664039612 1247:0.25693175196647644 1248:0.14462414383888245 1249:0.005501325707882643 1250:0.029080333188176155 1251:0.004280006512999535 1252:0.025438819080591202 1253:0.019532950595021248 1254:0.01743411459028721 1255:0.07085171341896057 1256:0.04421916604042053 1257:0.018986143171787262 1258:0.0018337751971557736 1259:0.009693444706499577 1260:0.033963292837142944 1261:0.004460012540221214 1262:0.009670283645391464 1263:0.08025538176298141 1264:0.1273096203804016 1265:0.0445505827665329 1266:0.0 1267:0.0029226476326584816 1268:0.0024303223472088575 1269:0.0 1270:0.0 1271:0.002760946052148938 1272:0.09377854317426682 1273:0.27713921666145325 1274:0.06376016139984131 1275:0.00980277732014656 1276:0.0 1277:0.0 1278:0.0 1279:0.0064737857319414616 1280:0.007189646828919649 1281:0.006432707421481609 1282:0.12215607613325119 1283:0.031276702880859375 1284:0.029408330097794533 1285:0.01004993636161089 1286:0.013166824355721474 1287:0.004984014201909304 1288:0.024034596979618073 1289:0.002396548865363002 1290:0.020162666216492653 1291:0.028478553518652916 1292:0.007903356105089188 1293:0.0 1294:0.0033499791752547026 1295:0.004388941451907158 1296:0.03489525616168976 1297:0.037814345210790634 1298:0.0 1299:0.004786436911672354 1300:0.007125301752239466 1301:0.004619797691702843 1302:0.00697801960632205 1303:0.0010558577487245202 1304:3.528500092215836E-4 1305:0.03312147408723831 1306:0.06936854869127274 1307:0.0 1308:0.01659131795167923 1309:0.0034562626387923956 1310:0.07966076582670212 1311:0.05162720009684563 1312:0.009971212595701218 1313:0.07791345566511154 1314:0.16705331206321716 1315:0.22133421897888184 1316:0.0310939010232687 1317:0.010726334527134895 1318:0.060712382197380066 1319:0.2709329426288605 1320:0.12624485790729523 1321:0.029913635924458504 1322:0.04238484054803848 1323:0.09717165678739548 1324:0.07467596232891083 1325:0.09328171610832214 1326:0.01718316040933132 1327:0.25114360451698303 1328:0.12421304732561111 1329:0.011388483457267284 1330:0.0 1331:0.0 1332:0.014938007108867168 1333:0.011638624593615532 1334:0.0017639182042330503 1335:0.05627981200814247 1336:0.02260151319205761 1337:0.029039597138762474 1338:0.002998308977112174 1339:0.0031675733625888824 1340:0.0010585500858724117 1341:9.231550502590835E-4 1342:0.063929483294487 1343:0.06648430973291397 1344:0.13795499503612518 1345:0.052126314491033554 1346:0.08343424648046494 1347:0.017209064215421677 1348:0.029913635924458504 1349:0.04238484054803848 1350:0.0248448196798563 1351:0.2709329426288605 1352:0.2609798014163971 1353:0.018189741298556328 1354:0.028996285051107407 1355:0.11921006441116333 1356:0.052648529410362244 1357:0.11880386620759964 1358:0.06636929512023926 1359:0.19575950503349304 1360:0.2709329426288605 1361:0.2709329426288605 1362:0.047316331416368484 1363:0.11524216085672379 1364:0.06891262531280518 1365:0.03549687936902046 1366:0.10560895502567291 1367:0.03954751789569855 1368:0.04481402039527893 1369:0.005960556678473949 1370:0.0021069191861897707 1371:0.029484380036592484 1372:0.027076473459601402 1373:0.08958826214075089 1374:0.020790476351976395 1375:0.0 1376:0.0 1377:3.0771835008636117E-4 1378:0.027815591543912888 1379:0.053558290004730225 1380:0.03518139570951462 1381:0.13645917177200317 1382:0.1084677055478096 1383:0.15374071896076202 1384:0.04973103851079941 1385:0.004854085389524698 1386:0.008949384093284607 1387:0.10516683757305145 1388:0.21802940964698792 1389:0.0038539792876690626 1390:0.02671637572348118 1391:0.029501918703317642 1392:0.05056190863251686 1393:0.15369932353496552 1394:0.055368613451719284 1395:0.02684815414249897 1396:0.029203098267316818 1397:0.04680188372731209 1398:0.015004790388047695 1399:0.0 1400:0.05963442847132683 1401:0.04298831894993782 1402:0.16401062905788422 1403:0.12924474477767944 1404:0.03528732806444168 1405:0.013053448870778084 1406:0.018235648050904274 1407:0.02163221314549446 1408:0.01934777945280075 1409:0.013700849376618862 1410:0.006257855799049139 1411:0.0 1412:0.0 1413:0.0 1414:0.02220269851386547 1415:0.013241681270301342 1416:0.02914900705218315 1417:0.03511228412389755 1418:0.013288512825965881 1419:0.09603778272867203 1420:0.019575711339712143 1421:0.010531183332204819 1422:0.018353398889303207 1423:0.006644188426434994 1424:0.0013601338723674417 1425:0.03689410910010338 1426:0.017750326544046402 1427:0.03491320088505745 1428:0.0601893849670887 1429:0.0518580824136734 1430:0.04219572991132736 1431:0.024677041918039322 